svm_type c_svc
kernel_type rbf
gamma 0.03125
nr_class 2
total_sv 727
rho 0.429353
label 1 2
nr_sv 386 341
SV
11.69795385066702 1:-0.825428 2:-0.293539 3:0.0065896 4:0.146959 5:0.168782 6:0.129034 7:-0.0615684 8:0.15402 9:-0.02968 10:-0.0741923 11:0.107988 12:0.216988 13:-0.271764 14:-0.0623982 15:0.661464 16:0.224149 17:-0.426466 18:0.0805352 19:0.135224 20:-0.441066 21:-0.0859705 22:0.62948 23:0.463069 24:0.522978 25:-0.0288224 26:-0.084889 27:0.066854 28:0.252654 29:-0.027876 30:0.123268 31:0.104284 32:0.238406 33:-0.0406485 34:-0.198109 35:0.26711 36:0.0443389 37:-0.267746 38:0.653312 39:0.212146 40:0.077303 41:0.0428594 42:0.3958 43:-0.0399105 44:0.305707 45:0.246917 46:0.037994 47:0.0846834 48:0.121665 49:-0.316572 50:-0.0463181 51:0.34253 52:0.0935372 53:-0.197917 54:0.123176 55:0.558363 56:0.490018 57:-0.259673 58:0.12417 59:-0.291491 60:-0.112594 61:0.121184 62:-0.181065 63:0.0367989 64:0.333722 65:0.537149 66:-0.205137 67:-0.0209779 68:0.266471 69:-0.260163 70:-0.00790773 71:-0.567149 72:-0.0678044 73:-0.324297 74:-0.117619 75:0.12591 76:-0.0244434 77:-0.0752177 78:-0.0320411 79:0.237251 80:0.0863434 81:-0.279232 82:-0.14951 83:0.0933172 84:0.0152905 85:-0.148733 86:-0.0808022 87:-0.172089 88:-0.0633225 89:0.0823489 90:0.206448 91:-0.11329 92:-0.137644 93:-0.284348 94:0.338958 95:-0.306194 96:0.168121 97:-0.189875 98:0.294967 99:0.143339 100:-0.140847 
3.850638340934124 1:-0.438432 2:-0.257991 3:-0.184586 4:0.0394828 5:0.17961 6:0.400627 7:0.254006 8:0.230209 9:-0.120808 10:-0.268452 11:-0.787114 12:-0.0643289 13:-0.145412 14:0.250052 15:0.712853 16:1 17:-0.0894857 18:0.0852843 19:-0.401636 20:-0.330558 21:0.411645 22:-0.0581591 23:0.743512 24:0.186493 25:-0.343854 26:-0.209649 27:0.15719 28:0.207003 29:-0.24911 30:0.0266521 31:0.3237 32:-0.376952 33:-0.000874085 34:0.288199 35:-0.292256 36:-0.411569 37:-0.211273 38:0.446219 39:-0.107193 40:-0.0603747 41:0.0592764 42:-0.750481 43:0.2367 44:-0.624821 45:-0.193044 46:0.616776 47:-0.171198 48:-0.16317 49:-0.693398 50:0.259281 51:-0.216482 52:-0.408976 53:0.311622 54:0.281592 55:0.472762 56:-0.0284232 57:-0.314733 58:0.355939 59:0.265319 60:-0.387765 61:-0.0483697 62:0.0285749 63:-0.281857 64:0.502153 65:-0.0164783 66:-0.183138 67:0.0198838 68:0.396325 69:-0.623371 70:-0.289364 71:-0.253744 72:-0.213338 73:-0.000158205 74:0.478772 75:0.226107 76:0.283535 77:0.125636 78:-0.0289586 79:0.240158 80:0.602408 81:0.0102182 82:-0.0662293 83:-0.143863 84:-0.30437 85:0.0713664 86:-0.476303 87:-0.142604 88:0.170473 89:-0.479131 90:-0.221015 91:-0.72306 92:0.415586 93:0.188641 94:-0.0678851 95:-0.0423678 96:0.0253639 97:-0.589096 98:0.514552 99:-0.111169 100:0.473938 
32 1:0.18805 2:-0.195141 3:-0.0327857 4:0.390943 5:-0.47569 6:0.0896851 7:0.0545195 8:0.282296 9:-0.650418 10:-0.0673717 11:-0.202399 12:0.56255 13:-0.0357408 14:0.262228 15:0.0444208 16:0.163043 17:-0.245999 18:0.175979 19:-0.242704 20:-0.339022 21:0.0521968 22:-0.0181696 23:0.0717857 24:-0.0718947 25:-0.142989 26:-0.0417527 27:0.0676273 28:-0.0366561 29:0.0527183 30:-0.120555 31:-0.160983 32:0.185351 33:-0.024232 34:0.507995 35:-0.0627305 36:-0.202127 37:0.0890057 38:0.454191 39:0.144133 40:-0.173757 41:-0.0124095 42:0.12707 43:0.167619 44:-0.403993 45:-0.187311 46:0.34814 47:-0.0705083 48:-0.0558272 49:-0.149535 50:-0.0725641 51:0.134712 52:-0.0567908 53:-0.105528 54:0.503464 55:-0.0197532 56:0.178835 57:-0.2407 58:-0.129843 59:0.258043 60:0.300707 61:-0.071041 62:-0.147395 63:-0.145401 64:0.472875 65:0.100228 66:-0.111157 67:-0.118782 68:0.109344 69:-0.415567 70:0.298774 71:-0.465818 72:0.104748 73:-0.0154928 74:0.130928 75:0.590374 76:-0.0501721 77:-0.357764 78:0.240738 79:0.0445458 80:0.421241 81:0.383187 82:0.0619592 83:0.0975854 84:0.0944961 85:0.390885 86:0.433491 87:0.0249486 88:0.0891029 89:0.240085 90:0.364834 91:-0.287249 92:-0.423826 93:-0.0346845 94:0.0124436 95:-0.133453 96:0.0301794 97:-0.2051 98:0.176017 99:0.105403 100:0.249948 
28.24138401548105 1:0.443821 2:-0.0538895 3:0.0784218 4:-0.126868 5:-0.0243898 6:-0.109787 7:-0.40893 8:0.346237 9:-0.227375 10:0.0131545 11:-0.313829 12:0.50662 13:-0.224299 14:0.161276 15:0.296843 16:-0.240443 17:-0.175246 18:0.269838 19:0.108674 20:-0.290428 21:0.295628 22:-0.325125 23:-0.0745973 24:0.143473 25:-0.00220775 26:0.111838 27:-0.26834 28:-0.0668182 29:0.00998726 30:0.299222 31:-0.0218146 32:0.0218886 33:-0.342066 34:0.284069 35:0.120602 36:0.282447 37:0.0125282 38:-0.0221271 39:0.0312692 40:0.0784697 41:0.1678 42:0.0478044 43:-0.320813 44:-0.123672 45:-0.17671 46:0.298275 47:0.075252 48:-0.244247 49:-0.225533 50:-0.0249116 51:0.315445 52:0.132143 53:0.0195909 54:0.239759 55:0.158149 56:0.0785623 57:-0.30574 58:-0.242403 59:0.200201 60:0.0600749 61:0.114215 62:-0.0473463 63:-0.103762 64:0.220007 65:-0.196851 66:-0.374947 67:0.0823928 68:0.417959 69:-0.320117 70:0.247481 71:-0.225079 72:-0.0263161 73:-0.00886529 74:0.338087 75:0.383924 76:-0.0523392 77:0.0708544 78:0.178265 79:0.228226 80:0.0214526 81:0.0156589 82:-0.043932 83:0.308108 84:-0.0693952 85:-0.0152211 86:0.190592 87:0.186206 88:-0.031052 89:0.0138831 90:0.055964 91:-0.173788 92:0.0492129 93:-0.0888124 94:0.102642 95:0.135167 96:0.0871365 97:-0.0122119 98:0.0899696 99:-0.212966 100:0.119647 
15.69057828784009 1:0.165711 2:0.112726 3:-0.12196 4:-0.0320865 5:0.0810625 6:-0.469768 7:-0.140716 8:0.371115 9:-0.0929887 10:-0.0391168 11:-0.142303 12:0.243831 13:0.0874385 14:0.574863 15:0.441189 16:0.0261154 17:-0.0835838 18:0.148794 19:0.192574 20:-0.316408 21:-0.169921 22:0.10151 23:0.203752 24:0.105309 25:0.36988 26:0.421523 27:-0.250392 28:-0.0928316 29:0.0610123 30:0.345922 31:0.0920097 32:-0.0581734 33:0.0600292 34:-0.254966 35:0.0568781 36:0.0257359 37:-0.0262113 38:0.223297 39:-0.269297 40:-0.300303 41:-0.0213039 42:-0.133478 43:-0.237612 44:-0.213396 45:-0.0915639 46:-0.0443941 47:0.419679 48:-0.214249 49:-0.487755 50:0.0938479 51:0.30243 52:-0.108814 53:0.114301 54:0.0213886 55:-0.0318891 56:0.116269 57:0.00426108 58:-0.242172 59:-0.210232 60:-0.287714 61:0.0464181 62:-0.419364 63:0.248077 64:0.240539 65:-0.223132 66:0.0422876 67:0.595782 68:0.236195 69:-0.401776 70:0.126859 71:0.0767337 72:0.247062 73:0.168637 74:0.615785 75:0.10923 76:-0.0852898 77:0.279854 78:-0.295383 79:0.146247 80:-0.193045 81:0.194861 82:-0.0758434 83:-0.0991545 84:0.309565 85:0.121956 86:0.160043 87:-0.315817 88:0.201852 89:0.200305 90:-0.0624612 91:-0.518219 92:0.0799307 93:-0.156654 94:-0.113439 95:-0.223571 96:0.094626 97:0.0221459 98:0.17736 99:0.226247 100:0.165948 
2.601557048018311 1:-0.704593 2:-0.484343 3:0.226989 4:0.180771 5:0.129089 6:-0.391428 7:-0.0441868 8:0.231731 9:-0.100842 10:-0.174123 11:-0.286533 12:0.362301 13:0.140177 14:0.318318 15:0.0331257 16:-0.153671 17:0.163909 18:0.287987 19:-0.00898106 20:0.0140028 21:0.108932 22:0.12658 23:0.0845105 24:0.197404 25:-0.0635459 26:-0.090824 27:-0.136381 28:0.0299121 29:0.245341 30:-0.244154 31:-0.036829 32:0.0692056 33:0.0882802 34:0.127004 35:0.0647841 36:0.28026 37:0.118554 38:0.0559697 39:-0.115846 40:0.191835 41:0.126965 42:0.0204997 43:-0.162735 44:-0.182268 45:0.179898 46:0.566113 47:0.0755508 48:-0.117334 49:-0.15757 50:-0.15651 51:-0.181324 52:0.0834409 53:-0.18181 54:-0.151442 55:-0.128178 56:-0.0754094 57:-0.200791 58:0.0629634 59:-0.0443146 60:-0.0863058 61:-0.0140572 62:-0.292291 63:-0.0925478 64:0.397794 65:-0.0614198 66:-0.261111 67:-0.15433 68:0.136628 69:-0.454713 70:-0.261656 71:0.0312556 72:0.11486 73:0.122201 74:0.179005 75:0.340666 76:0.537509 77:-0.289502 78:0.121489 79:0.266165 80:0.0852424 81:-0.0787485 82:0.0366488 83:0.0590793 84:-0.13349 85:0.0438982 86:0.0668634 87:-0.310177 88:-0.280729 89:-0.241515 90:-0.0355983 91:-0.143892 92:-0.211908 93:-0.355777 94:0.00213325 95:-0.148188 96:-0.243156 97:0.490756 98:0.429315 99:-0.0235625 100:-0.0030611 
7.58863602530282 1:0.435696 2:-0.403466 3:-0.0600409 4:0.465718 5:-0.174023 6:-0.243968 7:-0.17775 8:-0.206704 9:0.0323969 10:-0.269425 11:-0.4504 12:0.709973 13:-0.166245 14:0.162061 15:0.237666 16:0.324631 17:0.220244 18:0.29112 19:0.192777 20:-0.315242 21:-0.183185 22:0.106593 23:0.107432 24:-0.199139 25:0.23828 26:-0.383352 27:-0.046344 28:0.280304 29:0.430839 30:0.284429 31:-0.267936 32:-0.319274 33:-0.0944965 34:-0.356611 35:0.347015 36:0.12372 37:0.472867 38:0.298797 39:-0.206365 40:-0.31276 41:-0.0428733 42:0.147451 43:0.106499 44:-0.258439 45:0.217848 46:0.402115 47:0.450963 48:0.121565 49:-0.129433 50:-0.178607 51:0.35273 52:0.167421 53:-0.28693 54:0.259348 55:0.202159 56:-0.050421 57:-0.119802 58:-0.0740874 59:0.0804503 60:-0.417114 61:0.11229 62:0.132865 63:-0.345731 64:-0.000649832 65:-0.0372096 66:-0.161927 67:0.281779 68:-0.0162149 69:-0.452327 70:0.184805 71:0.250913 72:0.167139 73:-0.778097 74:0.0964745 75:0.67278 76:-0.00439407 77:-0.267599 78:0.201363 79:0.16925 80:0.243366 81:0.566319 82:0.0354341 83:-0.123002 84:0.114431 85:0.122606 86:0.160491 87:-0.10074 88:0.401422 89:-0.431495 90:-0.438549 91:-0.125611 92:0.17497 93:-0.159528 94:-0.00204635 95:0.166786 96:-0.159477 97:0.194086 98:0.26865 99:0.227165 100:-0.0772961 
8.576526115232239 1:-0.324384 2:-0.090774 3:0.306729 4:0.0231738 5:-0.0161523 6:0.484122 7:-0.53956 8:-0.3529 9:0.306955 10:0.196069 11:-0.923141 12:0.232148 13:-0.193451 14:0.365704 15:0.423861 16:-0.11916 17:-0.65477 18:0.179709 19:0.367332 20:0.0259264 21:-0.650201 22:0.510621 23:0.176556 24:0.379693 25:-0.12591 26:0.465818 27:-0.255509 28:-0.0333681 29:0.143843 30:0.67379 31:-0.12118 32:0.41676 33:0.0359827 34:0.13116 35:-0.347604 36:-0.184186 37:0.00378532 38:0.391516 39:-0.432195 40:0.0229245 41:0.151344 42:-0.631611 43:0.123362 44:-0.416732 45:-0.293046 46:0.013809 47:0.101583 48:-0.104342 49:0.132012 50:0.0995377 51:0.236396 52:0.232565 53:-0.0269039 54:0.269882 55:0.2269 56:-0.0747203 57:-0.379751 58:0.237917 59:0.145342 60:-0.0612099 61:-0.161482 62:-0.0380814 63:-0.128038 64:0.121177 65:-0.0107636 66:-0.300978 67:-0.172746 68:0.0285934 69:-0.458674 70:-0.0300706 71:-0.10494 72:-0.014384 73:0.0899639 74:0.43784 75:0.285303 76:0.0557953 77:-0.257048 78:0.796985 79:-0.303343 80:0.120892 81:0.0781402 82:0.0643188 83:-0.195137 84:0.172247 85:0.18878 86:0.120704 87:-0.0350847 88:0.0435621 89:-0.134932 90:-0.109084 91:-0.321336 92:-0.505929 93:0.0138964 94:0.359832 95:-0.339867 96:0.102483 97:0.0350954 98:0.155582 99:0.238897 100:-0.0912527 
1.459575055500767 1:0.0939023 2:-0.254819 3:-0.00806251 4:0.262554 5:0.500293 6:0.342335 7:0.221563 8:-0.60364 9:0.00816407 10:-0.76169 11:-0.712577 12:0.131081 13:-0.67732 14:0.419984 15:0.411139 16:0.383662 17:0.618027 18:0.413912 19:-0.395321 20:-0.161727 21:-0.378853 22:-0.0605021 23:-0.610109 24:0.119794 25:-0.20174 26:-0.0755499 27:-0.573041 28:0.379721 29:-0.83228 30:-0.255596 31:0.0766708 32:-1 33:0.0420649 34:-0.310355 35:-0.0900828 36:-0.046964 37:0.35489 38:0.24731 39:0.2359 40:-0.165653 41:-0.336701 42:-0.351543 43:-0.905986 44:-0.517038 45:0.160001 46:0.66553 47:0.0352031 48:-0.365945 49:0.0389096 50:-0.044377 51:-0.357418 52:-0.37209 53:-0.548723 54:-0.0275648 55:0.0202705 56:0.25259 57:-0.0680796 58:-0.0654606 59:0.154182 60:0.889759 61:0.731563 62:-0.27385 63:-0.156536 64:0.0634907 65:0.0356705 66:-0.163359 67:0.85419 68:0.129041 69:-0.284406 70:-0.135053 71:-0.326533 72:-0.430067 73:0.209981 74:-0.159138 75:0.501562 76:0.0400387 77:0.182415 78:-0.256095 79:-0.232016 80:-0.04508 81:-0.0762248 82:0.425389 83:-0.0851499 84:0.252556 85:-0.143453 86:0.00527424 87:-0.181577 88:0.107771 89:-0.158389 90:-0.035843 91:-0.186988 92:-0.52112 93:0.0408783 94:-0.134817 95:0.226345 96:0.0774191 97:-0.00241699 98:-0.0240961 99:-0.29313 100:0.897565 
1.695855536225135 1:0.0681115 2:-0.415107 3:-0.485922 4:-0.607583 5:0.552745 6:0.237601 7:0.0702207 8:0.294225 9:0.185119 10:0.514511 11:-1 12:0.377297 13:0.39514 14:0.207505 15:0.241717 16:0.235331 17:0.458219 18:-0.107545 19:0.517136 20:-0.000558106 21:-0.0488254 22:0.281656 23:-0.126413 24:0.412765 25:0.314596 26:0.121148 27:0.0896737 28:-0.452682 29:-0.423919 30:0.0855307 31:-0.230302 32:0.164314 33:-0.21352 34:-0.00447004 35:-0.370767 36:0.0187941 37:0.43604 38:0.279379 39:-0.47221 40:-0.165046 41:-0.172859 42:-0.0476113 43:0.0718224 44:-0.24751 45:-0.0754157 46:-0.00340445 47:-0.0417395 48:0.283256 49:-0.319951 50:-0.212912 51:0.0236464 52:-0.0642972 53:-0.387255 54:-0.0637132 55:0.334969 56:0.39508 57:-0.463481 58:0.0749382 59:-0.203353 60:0.153978 61:0.253877 62:0.235646 63:-0.420329 64:-0.640348 65:-0.0313852 66:-0.260227 67:-0.42948 68:-0.319812 69:0.0177834 70:-0.362025 71:-0.936623 72:-0.241891 73:0.22715 74:-0.534847 75:0.330112 76:0.517699 77:-0.206296 78:-0.246586 79:-0.0777932 80:0.442049 81:0.0339332 82:0.0439011 83:-0.0141789 84:-0.44214 85:-0.462287 86:-0.304326 87:-0.20866 88:-0.0309661 89:0.408589 90:-0.141716 91:-0.114055 92:0.207101 93:-0.343047 94:0.219888 95:-0.0220339 96:0.182062 97:-0.148365 98:0.327006 99:0.273561 100:-0.129175 
3.573745669777851 1:-0.387745 2:0.221909 3:-0.241935 4:0.362055 5:0.594409 6:0.0961003 7:-0.288523 8:-0.160343 9:0.0744724 10:-0.370952 11:0.113863 12:0.248706 13:-0.245503 14:-0.332215 15:0.552966 16:0.130261 17:-0.351588 18:0.148658 19:0.174954 20:-0.0986712 21:-0.1827 22:-0.368797 23:0.480152 24:-0.0993345 25:-0.607903 26:0.0376551 27:-0.245801 28:-0.400441 29:0.194636 30:-0.592504 31:0.235059 32:0.473329 33:-0.505911 34:-0.299328 35:-0.328994 36:0.208615 37:0.352046 38:0.0149818 39:-0.205767 40:0.0917753 41:0.137338 42:0.0253388 43:0.0103763 44:-0.245497 45:-0.0886625 46:0.267215 47:0.15652 48:-0.512533 49:-0.285121 50:-0.21958 51:0.144964 52:-0.0742467 53:-0.00700123 54:-0.168667 55:0.0336485 56:-0.463966 57:-0.170881 58:0.0772758 59:-0.263353 60:-0.221596 61:0.154511 62:-0.213736 63:-0.0526552 64:0.227581 65:0.462033 66:-0.259687 67:0.00651325 68:-0.055102 69:-0.348597 70:-0.222102 71:-0.131571 72:0.315855 73:0.130652 74:0.187483 75:0.498476 76:0.374704 77:0.262911 78:-0.208108 79:0.0645983 80:0.350193 81:-0.118046 82:-0.0782793 83:0.25141 84:0.0903308 85:0.225803 86:0.285648 87:-0.419544 88:0.3114 89:0.0346778 90:-0.000928517 91:0.00299896 92:0.40246 93:0.364011 94:-0.254023 95:0.163965 96:-0.517758 97:0.129648 98:-0.0047504 99:0.246038 100:-0.293702 
26.08910432414658 1:0.62319 2:0.0401568 3:0.353407 4:-0.29829 5:0.0163809 6:-0.346077 7:-0.223165 8:0.418325 9:0.0636323 10:-0.015827 11:-0.384813 12:0.553211 13:-0.177343 14:0.195612 15:0.44102 16:0.0317328 17:-0.368563 18:0.197849 19:0.0635029 20:0.10704 21:0.175991 22:0.20873 23:0.178642 24:0.209142 25:0.041891 26:-0.00379557 27:-0.399379 28:0.0538084 29:-0.172977 30:-0.0628456 31:-0.0461338 32:0.0483705 33:-0.157169 34:0.511322 35:0.190945 36:0.0791992 37:-0.283891 38:-0.262183 39:0.192235 40:0.140946 41:0.292411 42:0.209434 43:-0.140891 44:-0.0784777 45:0.152379 46:0.333453 47:0.455517 48:-0.102731 49:-0.148379 50:-0.0176496 51:-0.123841 52:0.406806 53:0.157785 54:0.428253 55:-0.00295996 56:-0.0529166 57:0.0644848 58:0.131888 59:0.188478 60:0.306052 61:0.180088 62:-0.346597 63:0.157562 64:0.113483 65:0.230861 66:-0.192447 67:0.109257 68:0.460949 69:-0.264379 70:-0.258533 71:-0.252163 72:0.299081 73:-0.338206 74:0.0185296 75:0.410242 76:-0.426834 77:-0.154483 78:0.0366026 79:0.166453 80:0.306557 81:-0.00349165 82:-0.1561 83:-0.576261 84:-0.0431059 85:0.198391 86:0.155408 87:0.168505 88:-0.144438 89:-0.242309 90:0.0151315 91:-0.667342 92:-0.137477 93:-0.0243572 94:-0.256235 95:0.0749473 96:-0.31215 97:0.0423555 98:0.351626 99:-0.509063 100:0.349242 
32 1:-0.170531 2:0.197204 3:-0.412482 4:0.0930207 5:-0.116142 6:0.0855265 7:-0.13949 8:0.0920408 9:-0.145666 10:-0.119649 11:-0.597678 12:0.451849 13:0.0259715 14:0.369718 15:0.305751 16:-0.124784 17:-0.263992 18:0.0871572 19:0.237607 20:-0.322673 21:-0.00357456 22:-0.131261 23:0.124512 24:0.555999 25:0.0318251 26:0.208627 27:0.0113473 28:0.0660493 29:0.251261 30:0.142215 31:-0.0639716 32:0.0650207 33:-0.0745018 34:0.0919647 35:-0.23767 36:-0.263096 37:0.188869 38:0.295705 39:-0.0296612 40:-0.200707 41:-0.0759003 42:-0.0105852 43:-0.0906354 44:-0.370396 45:-0.208412 46:0.103599 47:0.1335 48:-0.0814646 49:-0.259482 50:0.0448443 51:0.168943 52:0.0237594 53:-0.0270278 54:0.0556436 55:-0.0724482 56:0.0568593 57:0.0371429 58:-0.0216238 59:0.0195468 60:0.359565 61:0.118404 62:-0.0876691 63:-0.163792 64:-0.0578484 65:-0.0218997 66:-0.201205 67:-0.173199 68:0.103213 69:-0.329387 70:0.0246737 71:-0.106714 72:0.290725 73:0.151831 74:0.053812 75:0.36994 76:0.0417826 77:-0.102289 78:0.258613 79:0.259361 80:0.181393 81:0.170427 82:0.211997 83:-0.190973 84:-0.0675358 85:-0.0539151 86:0.38033 87:-0.171143 88:0.136163 89:0.106684 90:0.246624 91:-0.139114 92:-0.0915503 93:-0.0778139 94:0.0113756 95:-0.0693218 96:-0.00498394 97:0.00700027 98:0.157986 99:0.0596751 100:0.213694 
32 1:0.0794708 2:-0.283363 3:-0.174177 4:0.377195 5:0.194212 6:-0.195858 7:-0.389092 8:-0.172202 9:-0.174498 10:0.00734668 11:-0.107234 12:0.213663 13:0.0471815 14:-0.279502 15:0.0723036 16:0.0679504 17:-0.378593 18:0.106445 19:0.462564 20:-0.172434 21:0.172317 22:0.0486346 23:-0.00661526 24:0.206566 25:0.371902 26:0.0467632 27:-0.0412274 28:0.0262023 29:-0.290694 30:0.384484 31:-0.311112 32:-0.0330938 33:0.23371 34:0.540722 35:0.130791 36:-0.519239 37:0.28662 38:0.259593 39:0.247316 40:0.0273466 41:0.155258 42:-0.232475 43:-0.0589187 44:-0.183306 45:0.238339 46:0.454482 47:0.0604582 48:0.317495 49:-0.556045 50:-0.22133 51:0.396324 52:-0.105862 53:-0.0555285 54:0.426931 55:0.138153 56:-0.175516 57:0.0515948 58:-0.0613745 59:-0.0344533 60:0.246085 61:0.154075 62:-0.246103 63:-0.128648 64:0.0812259 65:0.139094 66:-0.180588 67:0.191672 68:0.0587219 69:-0.342309 70:0.0461851 71:-0.259852 72:0.315578 73:-0.150181 74:0.103146 75:0.483488 76:-0.0115309 77:0.357416 78:-0.417242 79:0.213939 80:0.0490607 81:-0.433383 82:0.20555 83:0.333039 84:0.1442 85:0.2898 86:-0.0719938 87:-0.165893 88:-0.121685 89:-0.0993935 90:0.323222 91:-0.18685 92:0.187433 93:-0.237256 94:0.0778483 95:-0.0861767 96:0.024894 97:-0.0544917 98:0.230358 99:0.0113 100:0.278208 
1.689627326030661 1:-0.535664 2:0.120439 3:-0.275228 4:0.241143 5:0.0545288 6:-0.286863 7:0.0462133 8:0.256438 9:-0.290773 10:0.299732 11:-0.327835 12:0.460896 13:-0.283264 14:0.283644 15:0.120342 16:-0.0870221 17:-0.12134 18:0.455848 19:0.30011 20:-0.285745 21:0.128558 22:0.170826 23:0.00729211 24:0.10276 25:0.0361048 26:0.175464 27:0.234503 28:0.0143067 29:0.276827 30:0.0653836 31:-0.18893 32:0.0119655 33:0.149067 34:0.168959 35:0.0690011 36:-0.256494 37:-0.247092 38:0.116207 39:-0.181511 40:-0.317502 41:0.0349852 42:-0.211459 43:0.0859663 44:-0.196827 45:0.144208 46:0.00830419 47:-0.115796 48:-0.290904 49:0.0911696 50:0.259146 51:0.541328 52:-0.0262122 53:-0.348911 54:0.25979 55:-0.172105 56:0.197599 57:-0.187257 58:0.312204 59:0.252031 60:-0.144089 61:0.057345 62:-0.213522 63:-0.227266 64:0.123203 65:-0.0775326 66:0.0291325 67:-0.0369378 68:0.142621 69:-0.338837 70:0.0331421 71:-0.401294 72:0.34204 73:0.038158 74:-0.248141 75:0.657543 76:0.373932 77:-0.246495 78:0.0650888 79:0.15641 80:0.0590851 81:-0.194231 82:0.154532 83:-0.125927 84:-0.121746 85:0.295868 86:0.0464635 87:-0.0144042 88:0.162738 89:-0.108687 90:0.277007 91:0.161814 92:0.0131613 93:-0.280795 94:-0.094536 95:-0.0729044 96:0.310519 97:0.188714 98:-0.0103435 99:0.172528 100:0.232395 
1.193316363092672 1:0.202716 2:0.085126 3:-0.188095 4:0.372769 5:-0.113467 6:-0.21852 7:-0.148616 8:0.528483 9:-0.313566 10:-0.272203 11:-0.345006 12:0.0694207 13:0.066483 14:-0.0136919 15:0.127057 16:-0.000142779 17:-0.193617 18:0.360862 19:0.122065 20:0.0733997 21:-0.0770679 22:-0.189028 23:0.122459 24:-0.0154788 25:0.0125466 26:0.319743 27:-0.0158322 28:0.0266027 29:-0.176599 30:-0.201041 31:-0.224173 32:0.132316 33:0.38268 34:-0.0550919 35:0.0486985 36:0.217313 37:0.361316 38:0.418049 39:0.22705 40:0.0634133 41:0.501542 42:0.224434 43:-0.248209 44:-0.47316 45:0.265469 46:0.110739 47:-0.161259 48:-0.216541 49:-0.345901 50:-0.0983617 51:0.543753 52:-0.0656022 53:0.0254203 54:0.184728 55:-0.0211334 56:0.0540713 57:0.324842 58:-0.234769 59:-0.026347 60:0.00703407 61:-0.0778837 62:-0.2961 63:-0.23796 64:-0.236041 65:0.118603 66:-0.63054 67:0.201323 68:0.0426317 69:0.117806 70:-0.0308355 71:-0.771295 72:0.299476 73:0.400212 74:0.6582 75:0.663585 76:-0.043743 77:-0.0156503 78:-0.266084 79:0.716153 80:-0.367491 81:0.941659 82:0.00437497 83:0.26266 84:0.193226 85:0.691646 86:0.427257 87:-0.260748 88:0.233014 89:-0.127734 90:-0.0784089 91:-0.0243391 92:-0.192058 93:-0.494404 94:0.00747371 95:-0.183439 96:0.102082 97:0.375074 98:0.0426743 99:0.214356 100:0.0764362 
3.75787442839885 1:0.330626 2:-0.217678 3:-0.578706 4:0.637294 5:0.37685 6:-0.0379657 7:-0.482441 8:-0.393473 9:-0.209929 10:0.23352 11:-0.669657 12:0.342796 13:-0.233828 14:0.122638 15:0.210814 16:0.186223 17:-0.277747 18:0.67511 19:0.317495 20:-0.255292 21:0.415044 22:-0.320796 23:0.226031 24:0.202102 25:0.6172 26:0.134856 27:-0.158176 28:-0.158702 29:0.00596657 30:0.439193 31:-0.342302 32:0.118757 33:-0.641935 34:-0.109196 35:0.521212 36:0.000659367 37:0.155036 38:0.0845654 39:-0.00819062 40:-0.0535027 41:0.113142 42:-0.57924 43:-0.134022 44:-0.0200368 45:-0.085442 46:0.119065 47:0.36721 48:-0.380186 49:0.230361 50:0.0993408 51:0.184346 52:-0.252329 53:0.270074 54:0.436024 55:-0.254688 56:-0.322452 57:-0.0368308 58:-0.28394 59:0.0840275 60:-0.170993 61:0.568236 62:-0.263642 63:-0.064278 64:-0.166484 65:-0.130165 66:-0.100563 67:-0.270927 68:-0.604088 69:-0.0491045 70:0.0977517 71:-0.126189 72:-0.555335 73:-0.604869 74:0.294353 75:0.518718 76:0.408758 77:-0.118367 78:0.224727 79:0.247657 80:0.782197 81:-0.419642 82:-0.3554 83:0.255523 84:0.514525 85:0.202085 86:0.018919 87:0.393254 88:0.218293 89:-0.215473 90:0.0858472 91:-0.628674 92:-0.0687479 93:0.0231141 94:-0.00768198 95:-0.0378007 96:-0.0568311 97:0.00476894 98:0.167661 99:0.0394112 100:0.0477603 
5.393290070963012 1:0.214466 2:-0.106021 3:-0.0744911 4:0.445299 5:-0.186663 6:0.144352 7:0.111522 8:0.281141 9:-0.845501 10:0.00244889 11:0.0985779 12:0.8193 13:-0.156671 14:0.2446 15:0.345856 16:-0.20175 17:-0.209495 18:0.44634 19:-0.0279895 20:-0.240453 21:-0.201567 22:-0.197931 23:-0.0494903 24:-0.0847536 25:-0.29091 26:0.31356 27:0.170804 28:0.336272 29:0.127367 30:-0.611098 31:-0.262337 32:0.361093 33:-0.0820091 34:0.364098 35:0.0099706 36:-0.424892 37:-0.112676 38:-0.0188501 39:0.279556 40:-0.355279 41:-0.00644673 42:0.316544 43:-0.56159 44:-0.176964 45:0.165796 46:0.385589 47:0.154232 48:-0.0733542 49:-0.1922 50:0.353441 51:0.0343005 52:-0.252885 53:0.352204 54:0.0464804 55:0.196235 56:-0.344 57:-0.282732 58:-0.273216 59:0.0383223 60:-0.00646872 61:0.0265919 62:-0.0764734 63:-0.0631147 64:0.35157 65:-0.213242 66:-0.346276 67:-0.177054 68:-0.0085521 69:-0.322153 70:-0.448113 71:0.0375242 72:0.13772 73:-0.140358 74:0.361843 75:0.0287787 76:-0.023938 77:-0.183223 78:-0.444043 79:0.301776 80:0.126343 81:0.554281 82:0.322213 83:0.314531 84:0.120149 85:-0.0078171 86:0.333883 87:0.0222514 88:-0.0645932 89:0.23803 90:-0.399528 91:-0.165829 92:0.162102 93:-0.228093 94:-0.363813 95:-0.0995249 96:0.103825 97:0.0512599 98:0.159054 99:0.0157101 100:0.415142 
31.41572105710577 1:-0.245643 2:0.137479 3:-0.0622579 4:0.207219 5:0.0639217 6:-0.185297 7:-0.317616 8:0.137377 9:-0.328552 10:-0.14351 11:-0.245439 12:0.734757 13:-0.195917 14:0.503926 15:0.258429 16:-0.374917 17:0.00114751 18:-0.10333 19:0.113013 20:-0.404521 21:0.00820137 22:0.211828 23:-0.0249156 24:0.28727 25:0.0712994 26:0.260727 27:0.206745 28:-0.0955874 29:-0.151 30:-0.181457 31:0.0648922 32:-0.15022 33:0.0291836 34:-0.0832895 35:-0.27834 36:-0.295345 37:-0.134654 38:-0.140965 39:-0.228682 40:0.222201 41:0.218336 42:-0.254037 43:-0.253922 44:-0.0485295 45:0.35017 46:0.210257 47:0.438186 48:0.304681 49:-0.307958 50:0.11298 51:0.406405 52:0.036431 53:0.231756 54:0.141665 55:0.175471 56:0.0674562 57:0.270143 58:0.189038 59:-0.0972549 60:-0.149433 61:0.133168 62:-0.216529 63:-0.115025 64:0.127471 65:0.0129775 66:-0.283145 67:-0.0127376 68:0.101688 69:-0.52027 70:0.0139719 71:-0.448936 72:0.142428 73:-0.173484 74:0.414982 75:0.358725 76:0.102001 77:-0.284789 78:-0.114206 79:0.134566 80:0.311389 81:0.0708728 82:0.40033 83:0.336659 84:-0.228905 85:0.0345485 86:0.00039193 87:-0.217952 88:0.242401 89:0.298917 90:-0.163452 91:0.117227 92:0.170071 93:-0.106829 94:-0.236122 95:-0.400612 96:0.0875552 97:-0.289642 98:0.150902 99:0.0332862 100:0.544334 
32 1:-0.374119 2:-0.169571 3:-0.0926917 4:-0.00108856 5:-0.0229025 6:0.10601 7:-0.182443 8:0.498446 9:-0.12517 10:-0.0583365 11:-0.468927 12:0.321013 13:-0.116145 14:0.344655 15:0.113455 16:0.0231715 17:-0.0824489 18:0.106151 19:0.147966 20:-0.33999 21:0.0688101 22:-0.0251166 23:0.0985822 24:-0.0039218 25:0.0306769 26:0.130129 27:-0.0755407 28:-0.130348 29:-0.0285066 30:0.0888183 31:-0.232379 32:0.0451219 33:-0.0758621 34:0.00940589 35:-0.118644 36:-0.0785471 37:0.312499 38:0.0618921 39:-0.0333479 40:0.23625 41:0.222162 42:-0.201025 43:-0.085691 44:-0.0671955 45:0.0232885 46:0.215244 47:-0.04047 48:-0.206711 49:-0.242478 50:0.120292 51:0.268366 52:-0.0143489 53:0.018534 54:0.230002 55:0.0440086 56:-0.0234986 57:0.0298061 58:-0.127926 59:-0.00613686 60:-0.0746613 61:0.115549 62:-0.00430045 63:0.0070068 64:0.0839257 65:0.167925 66:-0.162942 67:0.204891 68:-0.0436321 69:-0.199024 70:0.050487 71:-0.301574 72:0.341604 73:0.040953 74:-0.0400826 75:0.314661 76:0.0235538 77:0.193233 78:0.00795034 79:0.246657 80:0.0711956 81:-0.0350321 82:0.223261 83:-0.154547 84:-0.0857295 85:-0.00969461 86:0.177538 87:-0.125891 88:0.037682 89:0.0588652 90:-0.235396 91:-0.167385 92:0.00478781 93:-0.221765 94:-0.0692589 95:-0.130829 96:-0.209315 97:-0.173884 98:0.105988 99:0.0543763 100:0.360814 
7.732896782070769 1:0.460156 2:-0.0130355 3:0.0686437 4:-0.00750072 5:0.283991 6:-0.354848 7:-0.0743043 8:0.153166 9:-0.459052 10:-0.0294287 11:-0.317941 12:0.272958 13:-0.114241 14:0.133422 15:0.199558 16:-0.00738861 17:-0.128341 18:-0.0427672 19:0.201199 20:-0.683945 21:0.224443 22:0.327426 23:0.336024 24:0.320649 25:0.136104 26:0.227585 27:-0.0677083 28:0.130341 29:0.13621 30:-0.261527 31:0.0191852 32:-0.1406 33:-0.363563 34:0.134259 35:0.211864 36:0.105984 37:0.159781 38:0.277169 39:0.171953 40:0.0172574 41:0.228499 42:-0.001183 43:-0.204116 44:-0.281452 45:0.00744139 46:0.147318 47:0.229328 48:-0.115588 49:-0.25918 50:0.226447 51:0.205375 52:-0.104081 53:-0.318755 54:0.464696 55:0.0813527 56:0.15888 57:-0.0509081 58:0.051475 59:0.182606 60:-0.0491293 61:-0.0201218 62:-0.35538 63:0.0713203 64:0.42257 65:-0.0479046 66:-0.0511161 67:-0.0194094 68:0.143595 69:-0.188217 70:0.009031 71:-0.22072 72:0.13907 73:0.177098 74:-0.00395028 75:0.169414 76:-0.0630832 77:-0.107692 78:0.0352736 79:0.239786 80:0.153013 81:0.0280977 82:-0.0933032 83:-0.0770878 84:0.232239 85:-0.0163848 86:0.142726 87:-0.237696 88:0.136305 89:0.0265752 90:-0.09072 91:-0.164984 92:0.0072502 93:-0.115033 94:0.11594 95:-0.0158061 96:-0.414156 97:0.046819 98:0.188417 99:-0.0955824 100:-0.00335082 
21.97257656890816 1:-0.210817 2:0.323196 3:-0.231733 4:0.278995 5:0.363591 6:0.11861 7:-0.620571 8:-0.0849391 9:0.0377416 10:-0.774986 11:0.160802 12:0.336638 13:-0.0415976 14:0.38566 15:-0.593362 16:-0.107845 17:-0.130099 18:0.286846 19:-0.043328 20:-0.159486 21:-0.508467 22:0.106498 23:0.0993956 24:-0.0712994 25:-0.0640617 26:0.170037 27:-0.200634 28:0.0161008 29:0.131438 30:0.498395 31:-0.485335 32:0.477953 33:-0.137935 34:-0.0497524 35:0.284506 36:-0.525828 37:-0.702073 38:0.382666 39:0.189229 40:-0.35178 41:-0.0914903 42:0.0438817 43:-0.234751 44:-0.246173 45:0.129255 46:0.307187 47:0.503706 48:-0.507995 49:0.0248136 50:-0.340183 51:0.362977 52:0.324735 53:0.0480105 54:0.257695 55:0.503157 56:0.473522 57:0.0254239 58:0.0612474 59:-0.251379 60:0.176834 61:0.0826473 62:-0.513165 63:0.116536 64:-0.295717 65:-0.034659 66:0.105602 67:-0.104271 68:0.114682 69:-0.516129 70:-0.0334411 71:0.0497387 72:-0.262123 73:0.219322 74:0.0970378 75:0.313235 76:0.0711957 77:-0.332122 78:0.0890165 79:0.331579 80:-0.277062 81:0.621687 82:-0.254397 83:-0.376289 84:-0.347245 85:0.213623 86:-0.0503743 87:-0.485229 88:-0.0434154 89:0.216865 90:-0.350307 91:-0.0359102 92:0.432862 93:-0.252819 94:-0.0603297 95:-0.310391 96:0.0483979 97:0.488797 98:0.190268 99:-0.0244385 100:0.00362989 
15.85214290047287 1:-0.0475091 2:-0.00519529 3:-0.0647636 4:0.349937 5:0.29061 6:-0.0516207 7:-0.230513 8:0.333189 9:0.0620389 10:-0.392873 11:-0.235012 12:0.545352 13:-0.0885353 14:0.306662 15:0.422077 16:-0.264901 17:-0.0214631 18:0.641311 19:0.417422 20:-0.259141 21:-0.141994 22:0.0617982 23:0.548049 24:-0.00616517 25:0.177092 26:-0.0850238 27:-0.00474337 28:-0.11587 29:-0.209194 30:-0.0249641 31:-0.0908075 32:0.560994 33:-0.0252926 34:0.22353 35:-0.0304834 36:-0.118389 37:-0.282208 38:0.314401 39:-0.254333 40:0.055995 41:0.252163 42:0.141666 43:0.0419555 44:-0.213639 45:0.261401 46:0.201283 47:-0.108008 48:-0.302831 49:-0.116951 50:-0.0832586 51:0.423161 52:0.119307 53:-0.0893542 54:0.288098 55:0.230539 56:0.446276 57:-0.0682279 58:0.0283997 59:0.0970166 60:0.0801659 61:0.377679 62:0.205295 63:-0.482396 64:0.0941992 65:-0.0269451 66:0.0337316 67:0.0171565 68:-0.0069228 69:-0.475629 70:0.0663511 71:-0.548504 72:0.0653399 73:0.149628 74:0.0228251 75:0.307566 76:-0.0744852 77:-0.090666 78:0.0135325 79:0.320691 80:0.543687 81:0.0311714 82:-0.0861317 83:-0.244724 84:0.243017 85:0.435649 86:0.577716 87:-0.429523 88:0.224647 89:-0.212394 90:0.617739 91:-0.285823 92:0.280121 93:0.0929241 94:-0.38787 95:-0.276221 96:-0.311176 97:0.324027 98:-0.230923 99:0.125849 100:0.167279 
32 1:-0.419126 2:0.257657 3:-0.447273 4:0.240807 5:-0.171112 6:-0.0606774 7:-0.0409775 8:0.0402957 9:-0.355583 10:0.0765355 11:-0.235924 12:0.0984114 13:-0.405921 14:0.0481522 15:0.0745672 16:-0.0928369 17:0.631577 18:-0.400021 19:-0.0626726 20:-0.427809 21:0.0148391 22:0.541552 23:0.257062 24:0.313962 25:-0.232976 26:-0.0647757 27:-0.0232791 28:0.247046 29:-0.447489 30:0.235691 31:0.0307485 32:-0.173715 33:-0.366609 34:0.236879 35:0.0816902 36:0.198142 37:0.0659504 38:0.33176 39:-0.0846995 40:-0.0582816 41:0.208028 42:0.0228364 43:-0.474345 44:-0.0272359 45:0.141526 46:-0.0489734 47:-0.124984 48:0.0155725 49:0.0236307 50:0.00870728 51:0.577709 52:0.00280432 53:-0.0149675 54:0.124799 55:0.256872 56:0.0608746 57:-0.112905 58:0.116353 59:-0.149168 60:0.00238384 61:0.467804 62:-0.132709 63:-0.200795 64:0.276492 65:0.101286 66:-0.131775 67:0.423058 68:0.245964 69:-0.20381 70:-0.140355 71:-0.136122 72:0.393486 73:-0.361092 74:0.00289645 75:0.527362 76:0.141786 77:0.191286 78:-0.121347 79:0.0929238 80:-0.0814571 81:-0.167544 82:0.130998 83:0.253703 84:0.0842425 85:-0.286297 86:-0.00343886 87:-0.146655 88:-0.181891 89:-0.179822 90:0.372908 91:-0.260595 92:-0.0698516 93:0.0150172 94:-0.0184015 95:-0.287406 96:-0.458382 97:0.128749 98:0.328589 99:0.304522 100:0.132543 
10.55640696813814 1:0.468781 2:-0.0853449 3:-0.399517 4:0.420616 5:-0.254303 6:-0.126715 7:-0.165718 8:0.487537 9:-0.259328 10:-0.599703 11:-0.217073 12:0.514175 13:-0.281545 14:0.356789 15:0.275386 16:0.136889 17:-0.172045 18:0.119291 19:0.572382 20:0.0165249 21:-0.171815 22:-0.0663999 23:0.0942492 24:0.249642 25:0.147133 26:-0.00815674 27:0.0537671 28:-0.155877 29:0.0572604 30:0.588881 31:-0.201544 32:-0.0824674 33:-0.207167 34:0.0427909 35:0.0300685 36:0.0792002 37:0.210637 38:0.163648 39:-0.323725 40:0.171418 41:0.0176765 42:-0.171271 43:0.176948 44:-0.3679 45:-0.186269 46:-0.187048 47:0.149536 48:0.0901609 49:-0.46875 50:0.0794343 51:0.806615 52:0.101615 53:0.0679171 54:0.173325 55:-0.20498 56:0.241404 57:0.0509264 58:-0.0265667 59:0.376294 60:-0.236207 61:0.364144 62:-0.169702 63:-0.0834555 64:0.432322 65:-0.0669753 66:-0.098561 67:0.186489 68:0.3699 69:-0.192077 70:-0.576885 71:-0.256069 72:0.210652 73:0.0900942 74:0.365903 75:0.182465 76:0.365532 77:0.107451 78:0.5101 79:0.320301 80:0.057382 81:0.234239 82:-0.192112 83:0.230952 84:-0.206929 85:0.118502 86:0.165305 87:0.0854492 88:0.272102 89:0.159615 90:-0.0957251 91:-0.103306 92:-0.307228 93:-0.200972 94:-0.232355 95:-0.185822 96:-0.412831 97:-0.244332 98:0.22811 99:0.0196866 100:0.433055 
18.29128270784528 1:0.378665 2:-0.0933487 3:-0.282417 4:-0.258919 5:0.561545 6:0.0971383 7:0.0142567 8:0.0550001 9:0.161562 10:0.257504 11:-0.532168 12:0.340805 13:0.466307 14:0.465377 15:0.287918 16:0.0816288 17:0.169494 18:0.135315 19:0.149519 20:-0.131403 21:-0.811228 22:0.266036 23:0.369055 24:0.252061 25:0.58719 26:0.304453 27:0.0675523 28:-0.162573 29:-0.422226 30:0.0213096 31:-0.255781 32:-0.0275654 33:-0.389944 34:0.434028 35:0.0251551 36:0.153136 37:0.266402 38:-0.0454582 39:-0.202155 40:-0.460087 41:0.171065 42:-0.0331267 43:-0.0790691 44:-0.155039 45:-0.168611 46:0.0625451 47:0.0219522 48:-0.037662 49:-0.284833 50:0.0577481 51:0.363388 52:0.170596 53:-0.0514055 54:-0.297221 55:-0.109943 56:0.284097 57:-0.109754 58:-0.134598 59:-0.0816727 60:-0.134417 61:-0.084909 62:-0.195479 63:0.37719 64:0.145148 65:0.587652 66:-0.0402775 67:0.10047 68:0.0926437 69:-0.383 70:-0.279252 71:-0.287652 72:-0.0353111 73:0.571298 74:-0.0484749 75:0.199114 76:0.365875 77:-0.190494 78:0.0499459 79:0.0534405 80:0.536771 81:0.155108 82:0.261851 83:0.274202 84:-0.000922311 85:0.302844 86:-0.20929 87:-0.277954 88:0.555691 89:-0.245857 90:-0.00973268 91:-0.402681 92:-0.164795 93:-0.265025 94:-0.130716 95:-0.0180182 96:0.23018 97:0.221316 98:0.372799 99:-0.422829 100:0.0805729 
5.481558431996607 1:-0.185424 2:-0.741243 3:-0.374397 4:0.432251 5:0.0519118 6:-0.485228 7:-0.263828 8:0.264121 9:0.192007 10:-0.212833 11:-0.246689 12:0.477477 13:-0.210286 14:0.0274128 15:0.411037 16:-0.0771885 17:0.241418 18:0.335755 19:0.22641 20:-0.0474951 21:0.0898561 22:-0.0134668 23:0.342674 24:0.00201983 25:-0.0873003 26:0.319619 27:0.0994312 28:-0.12974 29:-0.0898517 30:0.200429 31:-0.410227 32:0.00986963 33:0.333062 34:-0.188003 35:-0.233092 36:0.237441 37:0.307757 38:0.389139 39:-0.0580195 40:-0.184587 41:-0.273174 42:-0.0182879 43:0.0831281 44:-0.265415 45:0.270915 46:0.400852 47:0.342052 48:0.00818974 49:-0.404314 50:0.278227 51:0.22667 52:-0.210893 53:0.00692541 54:-0.163372 55:0.148701 56:0.2132 57:-0.610453 58:-0.0497291 59:0.0181227 60:-0.116896 61:0.0807422 62:-0.20902 63:0.381814 64:0.114316 65:-0.187798 66:-0.108003 67:0.0237933 68:0.559534 69:-0.121125 70:0.113249 71:-0.210354 72:0.23564 73:-0.296214 74:-0.0612871 75:0.218977 76:0.289685 77:-0.389832 78:0.529097 79:0.0753134 80:-0.0686359 81:0.619998 82:0.025033 83:-0.25208 84:-0.340317 85:0.249498 86:0.32832 87:-0.059985 88:0.119271 89:-0.170227 90:-0.210659 91:0.0642488 92:-0.017299 93:-0.340887 94:-0.19309 95:-0.14657 96:-0.199791 97:-0.104066 98:-0.0447476 99:-0.0772553 100:-0.212167 
3.553752378503003 1:0.345838 2:-0.243768 3:-0.599176 4:0.734783 5:0.159731 6:-0.411063 7:-0.193205 8:-0.0796497 9:-0.543067 10:0.339807 11:-0.160632 12:0.647619 13:-0.41901 14:0.365265 15:-0.260598 16:0.0166602 17:-0.196764 18:0.0544889 19:0.297783 20:-0.172202 21:0.00150971 22:-0.210516 23:0.391579 24:0.00340441 25:-0.022702 26:0.0165428 27:-0.316357 28:0.387918 29:-0.677156 30:-0.323435 31:0.157707 32:0.428878 33:0.386173 34:0.453496 35:-0.0488605 36:-0.300484 37:-0.353372 38:-0.0254163 39:0.551912 40:0.205579 41:0.0209048 42:-0.611185 43:-0.33969 44:-0.227064 45:-0.175841 46:-0.380929 47:0.443252 48:-0.175974 49:-0.39541 50:0.00913104 51:0.151603 52:-0.418241 53:0.767189 54:-0.735608 55:0.56494 56:0.811525 57:-0.182531 58:0.328684 59:-0.375646 60:-0.15071 61:-0.52225 62:0.0476801 63:-0.488662 64:0.606505 65:-0.0117363 66:0.239802 67:-0.0428462 68:-0.502084 69:-0.319272 70:0.285872 71:-0.312316 72:0.57555 73:-0.147939 74:-0.116448 75:0.525307 76:-0.395568 77:-0.107114 78:-0.490919 79:0.363411 80:0.450645 81:-0.529755 82:0.106035 83:0.519293 84:0.0532752 85:-0.197237 86:0.349887 87:-0.00484128 88:-0.0495965 89:0.345945 90:-0.378348 91:-0.216094 92:-0.810575 93:0.207762 94:0.261237 95:-0.170009 96:-0.48306 97:0.0599725 98:-0.0276205 99:-0.160894 100:0.00946529 
14.01975108576642 1:0.448314 2:-0.0412759 3:-0.345579 4:-0.477754 5:0.48484 6:0.0945329 7:-0.329401 8:0.329182 9:-0.387572 10:-0.441799 11:0.229539 12:0.979297 13:0.295536 14:-0.0579556 15:0.527788 16:-0.123015 17:-0.111661 18:0.51294 19:-0.620196 20:-0.132374 21:-0.378149 22:-0.503333 23:-0.153621 24:0.315798 25:-0.101598 26:-0.416717 27:-0.280074 28:0.547288 29:-0.0459782 30:0.383728 31:-0.113277 32:0.398671 33:-0.70721 34:-0.109883 35:-0.603648 36:0.0382099 37:-0.0546323 38:-0.409214 39:-0.420856 40:-0.114618 41:-0.352144 42:-0.307915 43:0.122536 44:0.117742 45:0.48221 46:0.239129 47:0.217843 48:0.167119 49:0.04907 50:-0.0608501 51:0.246299 52:0.505069 53:0.808252 54:-0.208652 55:-0.143956 56:0.312186 57:-0.0853203 58:0.283905 59:-0.370246 60:0.588333 61:0.398498 62:-0.439002 63:0.871244 64:0.539871 65:0.235719 66:-0.360556 67:0.30087 68:-0.548976 69:-0.309559 70:-0.381947 71:-0.46764 72:0.473529 73:0.305757 74:0.177182 75:0.352876 76:0.228535 77:-0.527545 78:-0.517244 79:0.467805 80:-0.00464044 81:0.2708 82:-0.0408339 83:-0.097489 84:0.374343 85:0.697584 86:-0.956283 87:-0.429701 88:0.524358 89:0.134251 90:0.438984 91:-0.524967 92:0.0343263 93:-0.319987 94:-0.537362 95:-0.39481 96:-0.0843191 97:0.0674117 98:0.29226 99:0.00163008 100:0.137363 
9.474589813999852 1:0.36419 2:-0.0383592 3:-0.343443 4:-0.0366729 5:0.685167 6:-0.296395 7:-0.0271754 8:0.190182 9:0.231817 10:0.574691 11:-0.73798 12:0.285169 13:-0.260233 14:0.464345 15:0.280091 16:0.00970435 17:0.125008 18:0.167396 19:-0.0488422 20:0.265639 21:-0.144887 22:0.425129 23:-0.687238 24:0.23431 25:0.271802 26:-0.0726134 27:-0.494298 28:-0.260546 29:-0.185011 30:0.643147 31:-0.326212 32:-0.385325 33:-0.43874 34:-0.113559 35:-0.201406 36:-0.113948 37:-0.122702 38:0.55782 39:-0.0637289 40:-0.323793 41:-0.37615 42:-0.500917 43:-0.0626068 44:-0.559954 45:0.708117 46:0.0541733 47:0.239196 48:0.397889 49:-0.372326 50:-0.0529789 51:0.15524 52:0.148874 53:-0.0576029 54:-0.11837 55:0.32048 56:0.313184 57:-0.571812 58:0.219063 59:-0.00207784 60:0.351796 61:-0.23525 62:-0.600673 63:0.108996 64:-0.165157 65:-0.307817 66:-0.255938 67:-0.0234646 68:-0.363137 69:0.242321 70:-0.275546 71:-0.609463 72:0.153874 73:0.430899 74:-0.174688 75:-0.0653587 76:0.395522 77:0.00163975 78:-0.696507 79:0.0766251 80:-0.259248 81:0.0167116 82:-0.0166615 83:-0.174872 84:-0.294304 85:0.677979 86:-0.269611 87:-0.173699 88:0.128416 89:0.21597 90:0.169451 91:-0.181599 92:0.180795 93:0.0920657 94:-0.0468412 95:-0.602076 96:0.370541 97:-0.17693 98:0.593381 99:0.614969 100:0.381693 
8.607895680258274 1:-0.125915 2:-0.684329 3:0.113267 4:0.395142 5:-0.243172 6:-0.0574118 7:-0.428371 8:0.167785 9:-0.279599 10:-0.114679 11:-0.487569 12:0.346218 13:-0.206296 14:0.0602314 15:0.0857802 16:-0.157115 17:-0.07871 18:0.362302 19:0.741228 20:-0.457648 21:-0.222008 22:-0.423849 23:0.0994394 24:0.289258 25:0.431425 26:-0.266844 27:-0.115032 28:0.151137 29:-0.33358 30:0.273931 31:-0.169249 32:-0.0577929 33:-0.375011 34:0.0609021 35:0.264562 36:0.00541158 37:-0.21028 38:0.288273 39:0.332365 40:-0.2201 41:-0.14724 42:0.0143826 43:-0.0622383 44:-0.34362 45:-0.0246918 46:0.524784 47:0.314451 48:-0.407785 49:0.155468 50:0.0463822 51:0.200411 52:-0.0369542 53:0.0725564 54:0.181907 55:0.453265 56:0.161278 57:-0.252977 58:-0.040177 59:0.679068 60:-0.354427 61:0.400479 62:-0.350465 63:0.152098 64:-0.404784 65:0.0137562 66:-0.110962 67:-0.117554 68:-0.126536 69:-0.296776 70:0.556051 71:-0.278978 72:0.373285 73:0.0296043 74:-0.131789 75:-0.0621139 76:0.149587 77:-0.121255 78:0.262715 79:-0.203129 80:0.248482 81:0.339154 82:0.561169 83:-0.056718 84:0.287399 85:0.287221 86:-0.175914 87:0.248521 88:0.0536757 89:-0.245418 90:0.269828 91:-0.114997 92:0.200209 93:0.0927935 94:0.105342 95:0.0366231 96:-0.0287754 97:-0.0129381 98:0.229752 99:0.477059 100:0.163601 
11.52227537073178 1:0.312711 2:-0.423275 3:-0.671965 4:0.411593 5:0.67241 6:0.357732 7:-0.160099 8:-0.219887 9:-0.4388 10:-0.0939484 11:-0.0252826 12:0.199433 13:-0.45115 14:0.2596 15:0.185178 16:0.273953 17:-0.402104 18:-0.537385 19:0.415912 20:-0.66436 21:0.430377 22:0.074249 23:0.182193 24:0.249119 25:-0.0420391 26:0.083879 27:0.0467243 28:0.187332 29:-0.388427 30:0.305165 31:0.33087 32:0.345066 33:-0.269954 34:0.154919 35:0.114577 36:-0.0265589 37:-0.450873 38:-0.059239 39:-0.451262 40:0.192952 41:0.696862 42:-0.369989 43:0.335039 44:0.195725 45:-0.349252 46:0.407004 47:0.295297 48:0.190196 49:-0.311983 50:-0.0162666 51:0.482579 52:-0.0275383 53:-0.390445 54:0.752868 55:0.0375794 56:-0.339061 57:0.181055 58:-0.146386 59:-0.223242 60:0.764172 61:-0.161425 62:-0.446788 63:-0.10941 64:0.0150222 65:0.570891 66:-0.0191831 67:0.262183 68:0.38906 69:-0.0482364 70:-0.0725659 71:-0.292638 72:0.454453 73:0.178327 74:0.0309223 75:0.245455 76:0.177531 77:-0.254443 78:-0.0683762 79:-0.320489 80:0.0136333 81:0.277633 82:0.048269 83:-0.267854 84:-0.523389 85:0.341797 86:-0.327127 87:-0.707747 88:0.467852 89:0.187586 90:-0.479895 91:0.442468 92:-0.194716 93:-0.146242 94:0.144608 95:-0.334424 96:0.0809367 97:-0.149736 98:-0.239783 99:-0.295685 100:-0.0471243 
8.099140039198339 1:0.46199 2:0.531968 3:-0.0987661 4:0.477197 5:0.0784089 6:-0.426621 7:-0.285547 8:0.422789 9:0.0637841 10:-0.250253 11:-0.290676 12:0.61021 13:-0.31612 14:0.374287 15:0.41443 16:0.186096 17:0.138716 18:0.466681 19:0.179434 20:-0.11225 21:0.379103 22:0.0409261 23:0.246275 24:0.210194 25:0.201339 26:0.231818 27:-0.415231 28:-0.090739 29:-0.201843 30:-0.0535639 31:0.0122012 32:0.174134 33:0.0923499 34:0.0452948 35:-0.461772 36:-0.223097 37:-0.306625 38:0.465446 39:-0.128337 40:-0.0792988 41:0.125117 42:0.172235 43:0.264012 44:-0.103539 45:0.324678 46:-0.0980957 47:0.127998 48:-0.423642 49:-0.203635 50:-0.0264218 51:0.368822 52:-0.028449 53:0.352097 54:0.119886 55:0.453076 56:0.059915 57:-0.171693 58:0.0104379 59:0.050449 60:0.355367 61:0.170262 62:-0.159435 63:-0.0882974 64:0.316404 65:-0.00664593 66:-0.20578 67:0.159493 68:0.26129 69:-0.266374 70:-0.00388022 71:0.000906645 72:-0.128639 73:0.0678284 74:0.0135364 75:0.423867 76:0.000716356 77:0.317821 78:-0.395716 79:0.184908 80:0.254331 81:0.129485 82:0.08153 83:-0.223317 84:0.460048 85:0.0508425 86:0.293307 87:-0.0744008 88:0.0387175 89:0.256484 90:0.053618 91:-0.072626 92:0.0619941 93:0.289084 94:-0.169983 95:-0.0414468 96:0.116476 97:-0.126477 98:0.0896405 99:0.0884418 100:0.0273328 
32 1:0.072964 2:-0.0893362 3:-0.151455 4:0.370626 5:-0.0347645 6:-0.1318 7:-0.355748 8:0.650382 9:-0.296161 10:0.0162929 11:-0.322164 12:0.206449 13:-0.0929129 14:0.382484 15:0.137989 16:-0.0949122 17:0.0830871 18:0.0663819 19:0.162782 20:-0.349926 21:-0.0808265 22:0.0612101 23:0.0552385 24:0.153794 25:0.0679726 26:0.102334 27:-0.0810105 28:0.0457532 29:0.0510059 30:0.0621163 31:0.00815979 32:0.0327002 33:-0.0358116 34:-0.291908 35:0.166419 36:0.00512582 37:0.112633 38:0.340651 39:-0.0473522 40:0.0620364 41:0.153267 42:-0.178078 43:-0.0979063 44:-0.178385 45:-0.160391 46:0.554003 47:-0.0947284 48:-0.26774 49:-0.340218 50:-0.291358 51:0.0271156 52:-0.0151542 53:-0.363277 54:0.0703513 55:0.000781392 56:-0.14137 57:-0.109994 58:-0.184266 59:-0.0228716 60:-0.0851433 61:-0.0920558 62:-0.110166 63:-0.277987 64:0.00728692 65:0.0609535 66:-0.386918 67:0.0519283 68:0.121571 69:-0.294697 70:-0.0583037 71:-0.0549551 72:0.199592 73:-0.0430275 74:0.0602509 75:0.366827 76:0.218176 77:-0.321583 78:-0.254393 79:0.28948 80:-0.0726949 81:0.0376593 82:-0.194491 83:-0.0955153 84:-0.0795674 85:-0.0260001 86:0.103235 87:-0.159374 88:0.126124 89:-0.147836 90:0.0186052 91:-0.124106 92:-0.0575676 93:-0.0324545 94:-0.104378 95:-0.163764 96:-0.0361173 97:-0.14456 98:0.148222 99:0.0568933 100:0.0795026 
11.62780555027424 1:0.0847039 2:-0.339769 3:-0.306924 4:-0.653383 5:-0.0668447 6:-0.43608 7:-0.696304 8:0.0665292 9:-0.355188 10:-0.65333 11:0.318703 12:0.425764 13:0.315236 14:-0.0754814 15:0.24891 16:0.0321858 17:0.424182 18:-0.620168 19:0.496818 20:0.00410918 21:-0.296763 22:-0.453915 23:0.336331 24:0.340107 25:-0.0839854 26:0.513315 27:-0.725444 28:0.345143 29:0.210304 30:-0.239167 31:-0.505878 32:-0.280522 33:-0.110886 34:0.488611 35:-0.113613 36:-0.080754 37:0.414464 38:0.733883 39:-0.356985 40:-0.0328121 41:0.247671 42:0.00272084 43:0.188235 44:-0.408759 45:-0.310654 46:0.626991 47:0.190208 48:-0.240972 49:-0.156412 50:0.714443 51:0.199388 52:-0.208833 53:-0.298314 54:-0.416448 55:-0.0150098 56:0.241461 57:-0.445253 58:0.0717289 59:0.735228 60:0.163502 61:-0.294561 62:-0.0504013 63:-0.0631679 64:0.189902 65:-0.428778 66:-0.147163 67:0.293477 68:0.0763141 69:-0.431887 70:-0.254142 71:0.262302 72:-0.0037373 73:0.282196 74:0.501676 75:0.389797 76:0.0198742 77:0.289018 78:0.1989 79:0.272481 80:0.459631 81:-0.0508536 82:-0.178348 83:0.0783996 84:0.375421 85:0.13409 86:0.507877 87:-0.0971323 88:-0.23565 89:-0.0828908 90:-0.190055 91:-0.133063 92:0.171985 93:-0.705942 94:0.259023 95:0.0925823 96:0.0152339 97:-0.162676 98:0.276701 99:-0.334579 100:-0.850355 
26.33925834617354 1:-0.416097 2:-0.737953 3:-0.248034 4:0.175615 5:0.0737817 6:-0.526788 7:-0.431274 8:0.245586 9:0.29348 10:0.199727 11:-0.105 12:0.497029 13:-0.175434 14:0.183244 15:0.246919 16:-0.180001 17:0.593857 18:-0.139049 19:0.335423 20:-0.164667 21:0.235495 22:0.299953 23:0.262738 24:0.255172 25:-0.266262 26:0.318919 27:0.183214 28:0.054006 29:-0.302109 30:-0.107678 31:-0.193346 32:-0.322595 33:-0.305442 34:0.30078 35:0.160538 36:-0.418282 37:-0.018685 38:-0.0406522 39:-0.156934 40:-0.0522073 41:-0.144502 42:-0.223528 43:0.386396 44:-0.711364 45:0.236773 46:0.0482961 47:-0.0544468 48:-0.213054 49:-0.378191 50:0.00156059 51:0.208303 52:-0.0194401 53:0.0339399 54:0.483409 55:-0.205668 56:0.130697 57:0.100838 58:-0.0638538 59:0.324449 60:0.433648 61:0.0636693 62:-0.0594648 63:0.253909 64:0.456836 65:0.223738 66:-0.0100679 67:-0.0964264 68:-0.406459 69:-0.327376 70:-0.154243 71:0.231457 72:0.308466 73:0.0610052 74:0.455439 75:0.0784558 76:0.461136 77:0.504766 78:-0.120585 79:0.539059 80:-0.264903 81:-0.133061 82:-0.134845 83:0.073355 84:-0.0695402 85:-0.132981 86:0.503535 87:-0.277247 88:-0.837494 89:-0.0920323 90:-0.347509 91:0.149489 92:-0.378177 93:0.103145 94:0.0149778 95:-0.148601 96:0.465217 97:0.326098 98:0.537669 99:-0.506063 100:0.0516692 
3.222188113079059 1:-0.919442 2:-0.550721 3:0.352089 4:0.0703096 5:0.150349 6:-0.236843 7:-0.0422508 8:0.318628 9:-0.0578725 10:-0.0225602 11:-0.165278 12:0.411565 13:0.0488869 14:0.435043 15:0.231199 16:0.198706 17:0.011632 18:0.191937 19:0.167801 20:-0.104132 21:0.0643374 22:-0.219586 23:0.0796951 24:0.00442801 25:-0.0760185 26:0.00470068 27:-0.189648 28:-0.0307455 29:-0.040894 30:0.109079 31:0.0936185 32:-0.0175174 33:-0.078013 34:0.121124 35:-0.339071 36:0.0679547 37:0.138418 38:0.0917638 39:0.129101 40:-0.0249722 41:0.0449159 42:-0.0531915 43:-0.213758 44:-0.175658 45:0.0292853 46:0.186932 47:0.0996115 48:-0.0595813 49:-0.229471 50:0.0371014 51:0.291707 52:0.0782153 53:0.0742023 54:0.418635 55:0.077465 56:0.197751 57:-0.0879142 58:0.0600226 59:0.147847 60:0.0401054 61:0.0521667 62:-0.246399 63:-0.258153 64:0.137176 65:-0.0731691 66:-0.200845 67:0.126335 68:0.205533 69:-0.407074 70:0.0325691 71:-0.0247499 72:0.113807 73:0.129041 74:-0.115813 75:0.0839215 76:0.449937 77:0.0629157 78:-0.131716 79:0.216563 80:0.0716482 81:0.138803 82:0.223863 83:-0.0838508 84:0.106605 85:-0.0288809 86:0.201641 87:-0.0858218 88:0.11651 89:0.0454827 90:0.109064 91:-0.0137656 92:-0.13741 93:-0.0188722 94:-0.313108 95:0.0123308 96:-0.0616794 97:0.0868895 98:0.243893 99:0.14969 100:0.155561 
7.536997490430277 1:0.445024 2:0.132985 3:-0.835754 4:-0.51625 5:0.44617 6:0.272405 7:-0.0458618 8:0.386828 9:-0.7742 10:-0.0121722 11:-0.347835 12:0.635239 13:-0.110811 14:-0.401298 15:0.682469 16:0.563432 17:0.454982 18:0.549441 19:-0.098458 20:0.367312 21:0.00358023 22:-0.492846 23:0.102341 24:0.0119658 25:-0.575758 26:0.0640526 27:0.585607 28:-0.30987 29:-0.282187 30:0.282926 31:-0.183898 32:0.0546217 33:-0.228155 34:-0.163222 35:-0.0424409 36:-0.0202099 37:0.0828396 38:-0.578444 39:0.120912 40:0.215562 41:-0.293491 42:0.178653 43:0.19053 44:-0.288624 45:-0.606571 46:0.255077 47:-0.0516909 48:-0.155777 49:0.059961 50:-0.211092 51:-0.00654547 52:0.0309367 53:0.0584944 54:0.167364 55:0.340265 56:-0.0708185 57:0.457984 58:-0.0176286 59:-0.681381 60:-0.273263 61:0.340083 62:-0.411526 63:-1 64:-0.311776 65:-0.0421146 66:-0.00909919 67:0.312566 68:0.0478649 69:-0.168504 70:0.622122 71:-0.0949828 72:0.46014 73:-0.11024 74:0.902547 75:0.145921 76:0.269128 77:0.692982 78:-0.211235 79:0.137288 80:0.560535 81:-0.171494 82:-0.584461 83:0.0115606 84:0.314259 85:0.167199 86:0.52537 87:0.0845966 88:-0.0553711 89:0.725702 90:-0.220815 91:-0.441277 92:-0.200403 93:-0.0399129 94:-0.319198 95:-0.658815 96:0.064385 97:-0.350493 98:0.7173 99:-0.978505 100:0.212081 
32 1:-0.211271 2:-0.57783 3:0.293152 4:-0.0552062 5:-0.176936 6:0.100048 7:-0.240551 8:0.109015 9:-0.115437 10:0.0375771 11:0.301204 12:0.646058 13:0.176647 14:0.555175 15:0.225283 16:-0.369605 17:-0.0600117 18:0.105108 19:0.162164 20:-0.0520806 21:0.0528957 22:-0.145817 23:0.134062 24:0.105379 25:-0.244635 26:0.2659 27:-0.048337 28:-0.0697854 29:0.0590298 30:0.157315 31:-0.152259 32:0.210477 33:0.0336905 34:0.313906 35:0.142441 36:0.0864812 37:0.426792 38:0.172006 39:0.350431 40:0.172235 41:0.291414 42:0.10244 43:-0.184157 44:0.0970025 45:0.0555971 46:0.0841487 47:-0.0248249 48:0.086304 49:-0.138083 50:-0.157497 51:0.375352 52:-0.0807547 53:-0.11381 54:0.0336385 55:0.244852 56:-0.127851 57:-0.206876 58:0.00497872 59:0.0352693 60:-0.215619 61:-0.030696 62:-0.204093 63:-0.124824 64:0.237797 65:0.0139307 66:-0.262408 67:0.0544506 68:0.0861156 69:-0.164832 70:-0.31036 71:-0.0929284 72:0.069998 73:-0.215264 74:-0.0245288 75:0.165144 76:-0.0132632 77:0.241086 78:0.346423 79:0.216705 80:-0.0203785 81:0.062642 82:0.0897593 83:-0.158651 84:0.30244 85:0.145264 86:0.155849 87:-0.268671 88:0.157337 89:-0.125 90:0.0705146 91:-0.258218 92:-0.358548 93:0.122028 94:-0.0543555 95:-0.273933 96:0.270272 97:0.0328853 98:0.0712146 99:0.227377 100:0.350098 
32 1:0.49127 2:-0.150379 3:0.42679 4:0.00315278 5:0.295669 6:-0.540212 7:-0.210327 8:0.0970886 9:-0.0914673 10:0.00459741 11:-0.295431 12:0.234407 13:-0.245387 14:0.220177 15:0.351214 16:0.205834 17:-0.347395 18:-0.171472 19:0.230298 20:-0.500481 21:0.00652094 22:0.257817 23:0.103716 24:0.0812607 25:0.145092 26:0.0516203 27:0.39623 28:0.254645 29:0.183401 30:-0.184861 31:-0.113877 32:0.179926 33:0.066772 34:-0.369761 35:0.142458 36:0.24728 37:-0.0617467 38:-0.12016 39:0.138592 40:-0.0272332 41:0.0997952 42:-0.189333 43:-0.0167347 44:-0.367631 45:0.390558 46:0.228846 47:0.246201 48:-0.295129 49:0.199981 50:-0.0600778 51:-0.186209 52:-0.0742019 53:-0.28817 54:0.128791 55:-0.0928562 56:0.295217 57:0.00566528 58:0.298241 59:-0.113711 60:-0.0669018 61:0.343077 62:-0.056562 63:-0.104514 64:0.266208 65:-0.0853303 66:-0.131784 67:0.209989 68:-0.183614 69:-0.142845 70:-0.0824537 71:-0.196276 72:0.239364 73:0.0426759 74:0.027189 75:0.517365 76:0.184884 77:0.297342 78:-0.00712823 79:0.309725 80:0.0907013 81:0.465864 82:0.122407 83:-0.0420885 84:-0.0404447 85:-0.00316207 86:0.401006 87:-0.333873 88:-0.00472059 89:0.31138 90:-0.211305 91:-0.00816461 92:-0.177854 93:-0.145826 94:0.0864447 95:-0.0453693 96:0.111398 97:-0.312803 98:0.333925 99:-0.115993 100:0.313222 
1.553839840499908 1:0.281774 2:-0.330599 3:-0.101938 4:0.315673 5:0.199961 6:-0.414959 7:0.192936 8:0.0742073 9:-0.263502 10:0.140705 11:0.0533736 12:0.271104 13:-0.362839 14:0.206296 15:0.204468 16:-0.0529438 17:0.50555 18:-0.125864 19:0.446997 20:-0.657793 21:-0.285361 22:-0.234153 23:0.0290754 24:0.00648399 25:-0.242152 26:0.69083 27:-0.143577 28:0.00582097 29:-0.184652 30:-0.560097 31:-0.0638037 32:-0.503017 33:-0.245613 34:0.184146 35:0.088449 36:-0.0425919 37:-0.287965 38:-0.288065 39:-0.533671 40:0.515884 41:-0.150107 42:0.0570516 43:0.313771 44:0.204595 45:-0.137159 46:0.0932926 47:-0.242166 48:0.282379 49:-0.428199 50:-0.153785 51:0.625368 52:-0.0641515 53:-0.331605 54:-0.355037 55:-0.0213316 56:0.0312189 57:-0.210127 58:-0.532231 59:-0.0303624 60:0.33078 61:0.57585 62:0.00362405 63:0.120169 64:-0.115257 65:0.0564541 66:-0.1752 67:0.0328801 68:0.281689 69:-0.23823 70:0.185936 71:-1 72:0.14849 73:-0.50319 74:-0.0503086 75:0.444298 76:0.238619 77:-0.466996 78:0.186486 79:0.231242 80:0.32674 81:0.13865 82:0.0141718 83:0.708068 84:0.0958371 85:-0.017893 86:0.371302 87:-0.171005 88:0.117413 89:0.539126 90:-0.010003 91:-0.453292 92:0.186954 93:-0.202476 94:-0.294607 95:-0.496865 96:-0.637344 97:0.670666 98:-0.0334848 99:0.115765 100:0.674971 
9.429619692541015 1:-0.554836 2:-0.251391 3:0.121265 4:-0.0104177 5:-0.106541 6:-0.0928546 7:-0.283365 8:0.197285 9:-0.446285 10:0.01031 11:0.024403 12:0.41495 13:-0.467199 14:0.38172 15:0.29002 16:-0.163994 17:0.085695 18:0.235296 19:0.125841 20:-0.113864 21:0.219447 22:0.549404 23:-0.127423 24:0.31959 25:0.0429206 26:0.0623578 27:0.418723 28:-0.157517 29:-0.279461 30:0.213659 31:0.130874 32:0.36702 33:0.174518 34:-0.262261 35:-0.143763 36:-0.0357545 37:0.0680732 38:0.296306 39:-0.00959144 40:0.197923 41:0.287398 42:0.123802 43:0.0842345 44:0.00904713 45:0.0564515 46:0.363656 47:0.263348 48:0.017432 49:-0.408407 50:-0.00403762 51:0.0415605 52:-0.17939 53:-0.0926673 54:0.348469 55:0.398324 56:0.097401 57:0.020643 58:-0.0565821 59:0.213344 60:-0.155159 61:-0.0146259 62:-0.147183 63:0.292243 64:0.314613 65:-0.160123 66:-0.112392 67:-0.0439034 68:0.0902727 69:-0.367334 70:-0.130342 71:0.121669 72:0.0286631 73:-0.0724739 74:0.402166 75:0.316192 76:0.0823551 77:-0.0931242 78:-0.0174286 79:0.185498 80:0.501553 81:0.463599 82:0.281083 83:-0.165267 84:0.0442151 85:0.165898 86:-0.00936461 87:-0.0933228 88:0.292287 89:0.122804 90:-0.130528 91:-0.0439112 92:0.0935589 93:-0.129235 94:-0.0103136 95:-0.0981228 96:-0.0112703 97:0.170424 98:0.0843701 99:-0.21202 100:0.175059 
6.74309625739118 1:0.127048 2:-0.125093 3:-0.322746 4:-0.850243 5:-0.0915929 6:-0.17418 7:-0.0351238 8:0.266727 9:-0.402025 10:-0.709944 11:0.0815446 12:0.879814 13:0.0932496 14:-0.0743441 15:0.353611 16:0.0306 17:-0.0442806 18:0.181368 19:0.781193 20:-0.0360904 21:-0.34832 22:-0.913825 23:0.233352 24:0.540403 25:-0.315571 26:-0.274592 27:-0.317105 28:0.371264 29:0.246476 30:0.425066 31:-0.382219 32:0.264944 33:-0.435137 34:-0.097396 35:0.261095 36:-0.578154 37:0.105411 38:0.416295 39:-0.330266 40:0.030296 41:0.293659 42:-0.612567 43:0.0586979 44:-0.218236 45:0.292915 46:0.453398 47:-0.105551 48:-0.373667 49:-0.384881 50:0.102709 51:0.477146 52:0.17781 53:-0.2 54:0.451749 55:0.479504 56:0.0816976 57:0.293287 58:-0.138515 59:-0.11292 60:-0.0435729 61:0.388212 62:-0.066025 63:-0.358311 64:-0.0969647 65:-0.204246 66:-0.212309 67:0.628643 68:-0.0379286 69:-0.316274 70:-0.115244 71:-0.63091 72:0.0832481 73:-0.208587 74:0.0805549 75:0.215226 76:-0.188679 77:0.137092 78:0.25431 79:0.152499 80:0.37999 81:-0.0758342 82:0.225655 83:-0.222601 84:0.0352388 85:0.105081 86:0.341848 87:0.0365331 88:-0.289705 89:0.140507 90:-0.0663126 91:0.205295 92:-0.232257 93:-0.168956 94:-0.244862 95:-0.0762463 96:0.250873 97:-0.258292 98:-0.00278379 99:-0.0209557 100:0.492481 
19.57901110719744 1:-0.280578 2:-0.142887 3:0.298906 4:0.12271 5:0.338665 6:-0.0909849 7:-0.41895 8:-0.263798 9:0.310063 10:-0.469445 11:-0.349769 12:0.423824 13:0.180452 14:0.330918 15:0.756046 16:0.145078 17:-0.28601 18:-0.145767 19:0.169635 20:-0.534861 21:-0.0316616 22:0.135608 23:-0.283904 24:0.271884 25:0.000756194 26:-0.0872776 27:-0.711636 28:-0.383091 29:0.201809 30:0.0777215 31:-0.393059 32:0.0525657 33:-0.0265118 34:0.362191 35:0.308498 36:0.174672 37:-0.152981 38:0.216517 39:0.353574 40:0.307239 41:-0.263216 42:-0.563097 43:0.0411322 44:-0.433581 45:-0.268169 46:0.248497 47:0.173045 48:0.348456 49:-0.128744 50:0.174638 51:0.256272 52:0.0482554 53:-0.0312454 54:-0.187396 55:-0.1259 56:0.0939704 57:-0.0887762 58:0.315525 59:0.0025828 60:-0.110786 61:0.0466835 62:0.268685 63:-0.215237 64:0.0717724 65:-0.164849 66:-0.395104 67:0.124664 68:0.211191 69:-0.423003 70:0.204264 71:-0.358317 72:0.0244819 73:0.0846575 74:0.158013 75:0.404484 76:0.0757632 77:-0.371813 78:-0.22757 79:-0.185111 80:-0.349105 81:-0.413869 82:-0.337139 83:-0.233315 84:0.26001 85:0.585621 86:0.0640037 87:-0.273971 88:0.0733487 89:-0.0125935 90:-0.375539 91:-0.560171 92:-0.0483359 93:-0.109699 94:0.198311 95:-0.228912 96:0.145964 97:0.0193002 98:-0.0982863 99:0.57281 100:-0.179915 
32 1:0.227384 2:0.0108639 3:-0.491578 4:0.424749 5:0.177851 6:-0.157542 7:-0.411082 8:0.623981 9:0.0786477 10:-0.0192951 11:-0.187363 12:0.513526 13:-0.186286 14:0.173599 15:0.204522 16:-0.315217 17:0.108703 18:0.176149 19:0.118231 20:-0.351 21:0.167304 22:-0.0371866 23:-0.033642 24:0.301266 25:-0.0275108 26:-0.0338449 27:0.375798 28:0.22697 29:0.0609814 30:0.144462 31:0.0259528 32:0.0311635 33:0.0145807 34:0.0747263 35:-0.195624 36:-0.309051 37:0.241608 38:0.0986342 39:-0.0591366 40:-0.191077 41:-0.0441548 42:-0.107492 43:-0.0261878 44:-0.587842 45:0.158399 46:0.219987 47:0.240362 48:-0.341794 49:-0.260342 50:-0.0894693 51:0.123373 52:0.135628 53:0.0707147 54:0.32266 55:0.245173 56:0.143619 57:-0.141396 58:0.122023 59:0.243757 60:-0.110883 61:-0.297694 62:-0.274423 63:-0.347279 64:0.166524 65:0.197543 66:-0.104555 67:0.0150659 68:0.201183 69:-0.269418 70:-0.0766796 71:-0.470101 72:0.192603 73:0.0836739 74:0.012272 75:0.402606 76:-0.0230184 77:-0.0130549 78:0.187354 79:0.375952 80:0.0154868 81:-0.0348218 82:0.346876 83:-0.0760918 84:0.0877796 85:-0.0606925 86:0.179587 87:0.0588088 88:0.186801 89:0.00983436 90:0.10201 91:-0.0855839 92:-0.0742582 93:-0.187828 94:-0.0183294 95:-0.0950964 96:-0.126492 97:-0.341856 98:-0.209281 99:-0.100657 100:0.22667 
3.221140118781746 1:0.00259927 2:-0.290552 3:-0.0295545 4:0.382287 5:-0.119422 6:-0.283907 7:-0.196076 8:0.0698424 9:-0.542346 10:0.441766 11:0.105402 12:0.413517 13:0.318445 14:0.199467 15:0.264803 16:0.49298 17:0.300705 18:-0.0185378 19:-0.289929 20:0.111782 21:0.627197 22:-0.209871 23:0.257619 24:-0.193778 25:0.706738 26:-0.210217 27:0.362933 28:-0.285851 29:-0.106933 30:-0.535916 31:-0.251262 32:0.719106 33:-0.445392 34:-0.0192289 35:-0.0487028 36:-0.239027 37:-0.124983 38:-0.580774 39:-0.349789 40:0.00335168 41:0.316761 42:-0.163798 43:-0.200525 44:-0.0833164 45:-0.216298 46:0.423744 47:-0.332275 48:0.450035 49:-0.543705 50:0.0440959 51:0.0355029 52:0.260233 53:-0.207168 54:-0.800982 55:0.0876009 56:0.475156 57:-0.106429 58:-0.277576 59:-0.0819749 60:0.0926706 61:-0.268842 62:0.432072 63:-0.499439 64:0.407728 65:-0.330954 66:-0.0355352 67:0.758163 68:0.415614 69:0.0203499 70:-0.391211 71:1 72:-0.0035655 73:0.545536 74:-0.0354322 75:-0.133778 76:0.410643 77:-0.0816981 78:0.515581 79:0.721815 80:-0.183355 81:-0.329761 82:0.245531 83:1 84:-0.711608 85:-0.107549 86:0.0163262 87:0.0675625 88:0.223708 89:0.104905 90:-0.22829 91:-0.354117 92:0.230754 93:-0.468951 94:0.138412 95:-0.417289 96:0.525384 97:-0.83077 98:0.230307 99:0.707106 100:-0.503288 
25.42099063253874 1:0.22783 2:-0.13824 3:-0.355168 4:-0.362701 5:0.0658139 6:-0.163437 7:-0.10523 8:0.127524 9:0.129467 10:0.149402 11:-0.597253 12:0.321895 13:0.207036 14:0.357013 15:-0.0556104 16:-0.0662723 17:-0.031849 18:-0.0241111 19:0.376137 20:0.0299938 21:-0.739774 22:0.185216 23:0.155933 24:0.492511 25:0.301402 26:-0.127445 27:-0.212705 28:-0.0786063 29:0.102048 30:-0.000143773 31:-0.133031 32:0.108686 33:-0.287666 34:0.431201 35:-0.307904 36:-0.544191 37:0.343099 38:0.237972 39:-0.00420396 40:-0.142508 41:-0.0377266 42:0.00251868 43:0.0798136 44:-0.135159 45:0.0965633 46:0.316483 47:-0.141163 48:-0.0526677 49:-0.202926 50:0.123036 51:0.409812 52:-0.213316 53:-0.0409469 54:-0.0637589 55:0.200434 56:0.166738 57:0.0859356 58:0.186601 59:0.0654938 60:-0.21948 61:-0.319007 62:-0.136935 63:0.3067 64:0.289739 65:0.632846 66:-0.29281 67:-0.027036 68:0.424511 69:-0.457687 70:-0.213721 71:-0.110269 72:0.151706 73:0.0303631 74:0.0312646 75:-0.0587702 76:0.367462 77:-0.445262 78:0.232686 79:0.418491 80:-0.178822 81:0.0833457 82:0.299189 83:-0.0349789 84:-0.359024 85:0.442816 86:0.00680664 87:-0.197538 88:0.101937 89:-0.166797 90:0.236752 91:-0.140678 92:0.207388 93:-0.0759521 94:0.292492 95:-0.185433 96:-0.229699 97:-0.0820003 98:-0.0439158 99:-0.343814 100:0.795488 
32 1:0.447004 2:0.0732318 3:-0.466294 4:0.405988 5:0.0768414 6:-0.159779 7:-0.377932 8:0.500469 9:-0.0745469 10:-0.0268222 11:-0.359981 12:0.334791 13:-0.0703752 14:0.351401 15:0.345265 16:0.053763 17:0.252347 18:-0.0185255 19:0.344287 20:-0.437236 21:0.112588 22:-0.21603 23:0.00730172 24:0.343413 25:0.158296 26:0.174564 27:-0.174538 28:0.0356331 29:-0.00807804 30:0.445707 31:0.157892 32:0.129673 33:0.136221 34:0.150503 35:0.152849 36:-0.313325 37:0.019171 38:0.195778 39:-0.0879304 40:0.0169034 41:0.0255347 42:0.0421216 43:-0.201037 44:-0.15104 45:0.285123 46:0.343164 47:0.129298 48:-0.151217 49:-0.270673 50:-0.228632 51:0.156945 52:0.0266401 53:0.0306136 54:0.0775877 55:0.190323 56:0.102872 57:-0.0502147 58:-0.00683301 59:-0.0514134 60:0.0333957 61:0.229322 62:0.0584356 63:0.00328807 64:0.0956944 65:0.106917 66:-0.249936 67:0.241597 68:0.0120216 69:-0.27213 70:0.283741 71:-0.250313 72:-0.103126 73:0.191598 74:-0.0540525 75:0.322273 76:0.210262 77:-0.0133894 78:0.154807 79:0.312748 80:-0.139324 81:0.112991 82:0.0262253 83:-0.411207 84:0.203738 85:0.33916 86:0.195566 87:-0.0249709 88:-0.0247204 89:-0.128775 90:-0.0522291 91:-0.0176831 92:-0.0553018 93:-0.0493112 94:-0.0857964 95:-0.251757 96:0.0560777 97:0.144669 98:0.286752 99:-0.141498 100:0.21313 
1.920612312874042 1:0.170767 2:-0.653137 3:-0.12209 4:0.403621 5:0.316191 6:-0.366965 7:-0.389082 8:0.521647 9:-0.083317 10:-0.215493 11:-0.262973 12:0.544674 13:-0.0868164 14:0.2202 15:0.107164 16:0.150604 17:-0.405056 18:-0.0585357 19:0.563317 20:0.00967352 21:0.462853 22:0.0248257 23:0.352996 24:0.687319 25:-0.0586553 26:0.0574822 27:-0.327726 28:-0.049688 29:0.0815593 30:0.163876 31:0.181182 32:0.109623 33:0.0138536 34:0.17747 35:-0.181463 36:-0.139851 37:0.0770429 38:0.060532 39:0.160797 40:0.133541 41:-0.181825 42:0.0559382 43:0.294947 44:-0.365863 45:0.0600142 46:0.414717 47:-0.00080231 48:0.203476 49:-0.261576 50:0.116442 51:0.252011 52:-0.0237418 53:-0.0592868 54:-0.0833342 55:0.135891 56:0.035214 57:-0.213451 58:0.060884 59:0.15306 60:0.0220662 61:0.194665 62:-0.195549 63:0.23117 64:-0.101321 65:-0.0595766 66:-0.0560317 67:-0.011685 68:-0.356671 69:-0.437899 70:0.270865 71:-0.152657 72:0.235294 73:-0.150241 74:0.140394 75:0.261174 76:0.010868 77:-0.101728 78:0.0229428 79:0.0671393 80:0.140816 81:-0.0663713 82:0.164571 83:0.0588335 84:0.0452532 85:0.0437627 86:0.280454 87:0.132069 88:0.113842 89:-0.156506 90:0.133364 91:-0.169171 92:-0.220125 93:-0.0961142 94:-0.0422 95:-0.0643612 96:0.0959225 97:0.188332 98:-0.0672075 99:-0.314471 100:0.424126 
11.21283300876544 1:0.233211 2:-0.495349 3:-0.378514 4:0.416413 5:-0.053818 6:-0.335349 7:-0.150356 8:0.339335 9:0.3907 10:0.127006 11:-0.0135054 12:0.0530258 13:-0.137289 14:0.174591 15:0.217025 16:-0.0203097 17:0.135918 18:0.059545 19:0.044068 20:-0.502424 21:0.293893 22:-0.430875 23:0.645743 24:0.264388 25:-0.118881 26:-0.399424 27:0.504375 28:-0.174158 29:0.18394 30:0.234878 31:-0.204448 32:0.0133062 33:-0.381523 34:0.339018 35:-0.353315 36:0.0986868 37:0.027256 38:-0.0422469 39:0.147778 40:-0.0897836 41:0.141963 42:0.114579 43:0.0999945 44:-0.147945 45:0.185205 46:-0.00240699 47:-0.199578 48:-0.1201 49:-0.280716 50:0.299915 51:0.498667 52:-0.297948 53:0.272158 54:0.362264 55:-0.0761173 56:-0.123729 57:-0.353061 58:-0.197814 59:-0.386161 60:-0.0470059 61:-0.638446 62:0.0376154 63:-0.128346 64:0.0358325 65:-0.108779 66:-0.46213 67:-0.222802 68:0.211859 69:-0.280182 70:0.110408 71:-0.00616938 72:0.314178 73:0.269676 74:0.216118 75:0.483947 76:0.299269 77:-0.115437 78:-0.328927 79:-0.212115 80:0.552198 81:0.385259 82:0.271372 83:-0.343476 84:-0.357886 85:0.518096 86:0.100544 87:0.033848 88:-0.274422 89:0.128835 90:-0.0572939 91:0.0691354 92:0.124982 93:-0.483337 94:0.112919 95:0.0512038 96:0.254841 97:0.10434 98:0.180092 99:-0.235615 100:0.412039 
20.46099822683886 1:-0.0629763 2:0.2865 3:0.0775762 4:0.261603 5:-0.0861319 6:0.041818 7:0.0872841 8:0.47185 9:0.068846 10:0.347918 11:0.150666 12:0.32861 13:-0.231347 14:0.190909 15:0.229605 16:0.100754 17:0.63779 18:-0.108189 19:0.636308 20:-0.29863 21:0.135554 22:0.144023 23:0.0165108 24:0.233678 25:0.128157 26:-0.0509041 27:0.442136 28:-0.00390579 29:-0.0541318 30:-0.0123639 31:-0.121577 32:-0.29889 33:-0.222318 34:-0.0814621 35:0.181248 36:-0.389543 37:0.194555 38:0.462116 39:-0.247809 40:0.20336 41:0.139856 42:0.0304074 43:-0.250017 44:-0.263312 45:0.0651816 46:0.106774 47:0.110418 48:-0.457305 49:-0.384296 50:-0.0594498 51:0.333625 52:0.181344 53:0.0329321 54:0.390756 55:-0.205131 56:-0.0177 57:-0.402011 58:-0.165047 59:0.189756 60:-0.157395 61:-0.348418 62:-0.00179056 63:-0.130621 64:0.0836985 65:-0.108224 66:-0.327494 67:-0.0424119 68:-0.325739 69:-0.309514 70:-0.167928 71:-0.289436 72:0.0984638 73:-0.134261 74:0.252964 75:0.40414 76:-0.0877692 77:-0.235965 78:0.221182 79:-0.0964413 80:0.178077 81:0.0539683 82:-0.0533433 83:-0.0617131 84:-0.306288 85:0.302683 86:0.0169449 87:-0.160493 88:0.0638553 89:0.0192979 90:0.374025 91:0.0267848 92:-0.108726 93:-0.172817 94:-0.312352 95:-0.1165 96:0.0289026 97:-0.292927 98:0.0314485 99:-0.209011 100:0.425531 
0.2642933987526905 1:-0.122301 2:0.132022 3:-0.0609773 4:-0.0116113 5:0.113774 6:-0.123867 7:-0.233769 8:0.281734 9:0.132945 10:-0.201285 11:-0.272114 12:0.24582 13:-0.0960092 14:-0.130394 15:0.241667 16:0.122478 17:-0.376764 18:-0.0653235 19:0.0535774 20:-0.524799 21:-0.0725818 22:-0.0936266 23:0.182493 24:0.200397 25:-0.130899 26:-0.151165 27:0.0324577 28:-0.132968 29:0.200061 30:0.163354 31:-0.276155 32:-0.114269 33:0.211913 34:0.232255 35:-0.253476 36:-0.0758546 37:-0.161764 38:0.469233 39:-0.057601 40:0.0984419 41:0.0536806 42:0.0217064 43:-0.119964 44:-0.408944 45:-0.0355362 46:0.0814788 47:-0.0986344 48:0.0186609 49:-0.370761 50:-0.245586 51:0.353413 52:-0.0953463 53:0.271981 54:0.0611944 55:0.169669 56:0.0882 57:-0.230261 58:-0.0604938 59:0.141759 60:-0.256476 61:-0.134271 62:-0.310968 63:-0.131857 64:-0.00919705 65:0.0993528 66:-0.210577 67:0.109409 68:-0.0421722 69:-0.296513 70:0.019472 71:-0.153946 72:0.249577 73:-0.0345889 74:0.163842 75:0.222709 76:-0.104153 77:0.117479 78:-0.122501 79:0.0449014 80:0.151091 81:-0.0337955 82:-0.020839 83:0.157886 84:-0.223085 85:0.126504 86:0.169807 87:-0.0569179 88:0.0334953 89:0.00965284 90:-0.0370684 91:-0.208137 92:-0.162018 93:0.0386375 94:0.10117 95:-0.262583 96:-0.250599 97:-0.166634 98:-0.123115 99:-0.14754 100:0.596929 
32 1:0.478863 2:0.03479 3:0.182204 4:0.197806 5:0.369006 6:-0.352901 7:0.00688577 8:-0.053316 9:-0.0994437 10:0.342586 11:-0.644846 12:0.213416 13:-0.0363938 14:0.0960552 15:0.0703513 16:-0.0676965 17:-0.108823 18:-0.35266 19:0.116823 20:-0.548473 21:-0.220336 22:0.314023 23:0.185766 24:0.134431 25:-0.134376 26:0.122509 27:0.0711135 28:-0.180031 29:-0.171623 30:0.380942 31:0.0333875 32:-0.475061 33:0.075813 34:0.281827 35:-0.17931 36:0.0959924 37:-0.120477 38:0.353351 39:0.036029 40:-0.11059 41:0.244103 42:-0.0501846 43:-0.0281983 44:-0.131799 45:0.190462 46:0.334994 47:0.205506 48:0.0739466 49:-0.316255 50:-0.00716602 51:0.472017 52:0.16055 53:0.202717 54:0.146635 55:0.369612 56:0.113713 57:0.171308 58:-0.0633679 59:-0.0321534 60:0.0446995 61:0.0648883 62:0.0172419 63:0.226872 64:0.204866 65:0.0792445 66:-0.227837 67:-0.176035 68:0.101848 69:-0.298217 70:-0.403557 71:-0.281395 72:0.117523 73:-0.278507 74:0.0241216 75:0.498194 76:-0.102452 77:-0.240338 78:-0.186956 79:0.307612 80:0.287171 81:0.0682135 82:0.163426 83:-0.298507 84:-0.0189413 85:0.339432 86:0.10631 87:-0.0713819 88:0.129996 89:0.0583671 90:0.0851265 91:-0.145719 92:-0.104369 93:-0.00956649 94:-0.409087 95:-0.252983 96:-0.218531 97:0.185671 98:0.248977 99:0.0146469 100:0.256682 
32 1:0.467724 2:0.288463 3:-0.230707 4:0.586373 5:0.189134 6:-0.406698 7:-0.382736 8:0.821468 9:-0.143096 10:-0.264253 11:-0.392292 12:0.313908 13:-0.0463546 14:0.295365 15:0.608271 16:0.200987 17:0.115748 18:-0.156976 19:0.309461 20:-0.203585 21:0.000811406 22:0.139245 23:-0.00343004 24:0.344248 25:0.0961768 26:0.111741 27:-0.191035 28:-0.0292695 29:-0.0620388 30:-0.0155819 31:-0.125407 32:0.114954 33:-0.178142 34:0.144656 35:-0.0942415 36:-0.105162 37:0.155142 38:0.00258108 39:0.0553434 40:-0.170051 41:0.168079 42:0.276213 43:-0.159145 44:-0.0342109 45:-0.0625704 46:0.0709268 47:-0.0915083 48:-0.218358 49:0.0115711 50:0.0884957 51:0.11643 52:-0.0663224 53:0.249276 54:0.0198714 55:0.0837256 56:0.00366252 57:-0.0907738 58:0.0573229 59:-0.223263 60:0.113626 61:-0.193281 62:-0.231972 63:-0.248938 64:0.16684 65:0.313757 66:-0.112033 67:0.179778 68:0.0961806 69:-0.462623 70:0.107161 71:-0.0779131 72:-0.058283 73:-0.250619 74:0.0729918 75:0.327127 76:-0.13372 77:0.18889 78:0.0572715 79:0.431322 80:0.057863 81:0.0589864 82:0.188322 83:-0.0311102 84:-0.0689814 85:0.261087 86:0.0297207 87:0.0243954 88:0.154751 89:0.206082 90:-0.310107 91:-0.220783 92:0.133065 93:-0.0889827 94:0.0330501 95:0.0113297 96:0.150615 97:0.00815328 98:0.27955 99:0.0814925 100:0.049485 
29.02994450438685 1:-0.820208 2:-0.0736845 3:-0.0938427 4:0.184814 5:0.0691615 6:-0.172012 7:-0.147629 8:-0.0956708 9:-0.60213 10:0.123553 11:0.13189 12:0.19936 13:-0.449987 14:0.371878 15:0.59731 16:0.0887047 17:0.565949 18:0.44653 19:0.367197 20:-0.0451796 21:0.210833 22:0.551535 23:-0.316008 24:0.364783 25:0.183051 26:0.474783 27:0.413893 28:-0.358018 29:0.394812 30:0.334499 31:0.168677 32:0.183191 33:-0.124107 34:0.100558 35:-0.176685 36:-0.183974 37:0.131571 38:0.370646 39:0.101725 40:0.162825 41:-0.0215695 42:0.0212385 43:0.212293 44:-0.061386 45:0.283952 46:0.406409 47:0.341574 48:-0.142534 49:-0.15426 50:0.348324 51:0.0923845 52:-0.00147154 53:-0.0685729 54:0.408059 55:0.173557 56:0.084329 57:0.176156 58:-0.421545 59:-0.224415 60:0.0624337 61:0.232907 62:-0.122572 63:0.21645 64:0.010913 65:0.058084 66:-0.262419 67:-0.199061 68:0.284016 69:-0.266925 70:-0.068726 71:-0.00890071 72:0.0797397 73:0.062927 74:-0.0974785 75:0.0642657 76:-0.537387 77:-0.234014 78:0.389591 79:0.461542 80:0.215442 81:0.0690043 82:0.213785 83:-0.200962 84:-0.127482 85:-0.00801629 86:0.319993 87:-0.0348595 88:0.207158 89:0.149555 90:-0.191005 91:-0.30179 92:0.129085 93:-0.124013 94:-0.315225 95:0.0471059 96:-0.336192 97:0.203838 98:0.380429 99:-0.220425 100:0.104211 
32 1:0.413549 2:0.0443796 3:0.101762 4:0.0244761 5:0.383829 6:-0.350368 7:-0.24969 8:0.249366 9:-0.449179 10:-0.104601 11:-0.0645103 12:0.320709 13:-0.44911 14:0.11228 15:0.303547 16:-0.136751 17:0.0104887 18:0.261067 19:0.135125 20:-0.297774 21:0.287994 22:-0.132046 23:-0.0788548 24:0.587212 25:-0.0289092 26:0.0750775 27:-0.218787 28:0.413139 29:0.157685 30:0.0451493 31:-0.193052 32:-0.0701809 33:-0.0335177 34:0.289975 35:-0.00321098 36:-0.100139 37:0.0712211 38:0.210128 39:0.456601 40:0.236227 41:0.291388 42:0.209341 43:-0.366478 44:-0.435405 45:-0.190718 46:-0.103624 47:0.00899475 48:-0.166722 49:0.0348971 50:-0.376157 51:0.605295 52:-0.0663599 53:-0.406949 54:0.00107379 55:-0.00247079 56:0.0512217 57:-0.291906 58:0.151803 59:-0.195655 60:-0.16756 61:-0.20409 62:-0.100132 63:0.212828 64:0.422298 65:-0.122599 66:-0.361315 67:0.329486 68:0.190107 69:-0.370772 70:-0.00845657 71:-0.360394 72:0.138107 73:-0.188365 74:-0.162915 75:0.25933 76:0.204404 77:-0.0873735 78:0.112724 79:0.333392 80:0.108309 81:0.0106885 82:0.183487 83:-0.0295881 84:-0.185832 85:0.232095 86:-0.0969148 87:-0.11883 88:-0.146605 89:0.325601 90:-0.0475707 91:-0.0809897 92:0.188385 93:-0.12037 94:0.0825212 95:-0.0508565 96:0.226159 97:0.0211609 98:0.360115 99:-0.0229036 100:0.133566 
18.57723532824733 1:0.542913 2:0.0217602 3:0.409995 4:0.436299 5:-0.596804 6:0.069181 7:-0.05784 8:0.703391 9:0.0503455 10:0.222416 11:0.125855 12:0.283432 13:-0.346602 14:0.444734 15:0.394092 16:-0.272141 17:-0.223306 18:0.0373188 19:0.116801 20:0.0177507 21:0.0865794 22:0.0958951 23:0.156928 24:0.139301 25:-0.0983901 26:0.235839 27:-0.405523 28:0.123825 29:-0.0596917 30:0.139764 31:0.379352 32:0.661988 33:-0.277526 34:0.272506 35:-0.197821 36:0.282583 37:0.342806 38:0.0744604 39:0.395722 40:-0.00559582 41:0.0350082 42:-0.167376 43:-0.171982 44:-0.0147237 45:0.094393 46:0.115462 47:0.269798 48:-0.0662821 49:-0.0726603 50:0.246883 51:0.14079 52:0.078376 53:0.324858 54:0.201358 55:-0.0101917 56:0.120854 57:-0.228066 58:0.193625 59:0.169771 60:0.0974698 61:-0.0980575 62:-0.286105 63:-0.420092 64:0.0497802 65:-0.091122 66:-0.279014 67:-0.515477 68:-0.29609 69:-0.474681 70:-0.389663 71:-0.638312 72:0.00120878 73:-0.312448 74:0.443895 75:0.658039 76:0.501725 77:-0.202494 78:-0.0676591 79:0.729288 80:-0.391109 81:0.742937 82:0.024159 83:-0.324063 84:0.0827117 85:-0.408401 86:-0.215239 87:0.181729 88:0.0942488 89:0.0229522 90:-0.0901856 91:0.135022 92:0.171464 93:-0.142086 94:-0.147144 95:0.249019 96:0.241069 97:-0.064613 98:0.0417487 99:-0.187543 100:0.0369736 
21.38243950781604 1:-0.172996 2:-0.329804 3:-0.517134 4:0.464831 5:-0.0304643 6:-0.541882 7:-0.460308 8:0.358651 9:-0.155884 10:0.0119682 11:-0.287294 12:0.353642 13:0.0707891 14:-0.0788287 15:0.535114 16:-0.298615 17:0.606105 18:-0.186143 19:0.00309081 20:-0.263093 21:-0.290629 22:0.196663 23:-0.0595801 24:-0.25012 25:-0.268028 26:0.143728 27:0.0894666 28:0.112434 29:-0.331638 30:0.110844 31:-0.129212 32:-0.039849 33:-0.0729147 34:-0.234691 35:-0.00861907 36:-0.184655 37:-0.237414 38:-0.021851 39:-0.141727 40:-0.156463 41:0.174806 42:-0.134598 43:-0.0642868 44:-0.573962 45:0.0327107 46:0.0422256 47:0.121073 48:-0.383274 49:-0.275724 50:-0.440192 51:0.276432 52:0.0343169 53:0.256532 54:0.520661 55:-0.254259 56:0.0767884 57:0.0236958 58:0.248567 59:-0.0521233 60:0.118397 61:-0.182194 62:-0.18425 63:-0.18711 64:-0.0790493 65:0.164487 66:-0.329985 67:0.315446 68:0.328433 69:-0.212512 70:0.204229 71:-0.000489155 72:-0.288796 73:0.376262 74:0.225848 75:0.215393 76:0.468281 77:0.252723 78:0.368547 79:0.535989 80:0.518526 81:0.443753 82:-0.200355 83:-0.0976306 84:0.476815 85:-0.0880463 86:0.0887236 87:-0.233897 88:0.396797 89:0.198138 90:0.568609 91:0.0425341 92:0.292436 93:0.0518429 94:-0.28254 95:-0.0311898 96:0.14185 97:0.0197646 98:-0.106578 99:0.449744 100:0.254686 
24.92975652524183 1:-0.358286 2:-0.165021 3:-0.40402 4:0.33743 5:-0.400718 6:-0.142477 7:0.389465 8:0.187482 9:-0.328801 10:-0.188327 11:-0.392814 12:0.0985108 13:-0.0732708 14:-0.000563739 15:0.378159 16:0.0155735 17:-0.256394 18:0.0452726 19:-0.214997 20:-0.33591 21:0.0229735 22:-0.00755038 23:0.42104 24:-0.0527831 25:-0.10864 26:-0.108882 27:0.262587 28:0.363536 29:-0.0474358 30:0.284556 31:-0.0779118 32:0.131647 33:-0.12709 34:0.108736 35:-0.19391 36:0.212985 37:0.0617875 38:-0.113165 39:-0.303739 40:-0.184182 41:0.188252 42:0.0374076 43:-0.0028133 44:-0.228969 45:-0.156736 46:-0.0302127 47:0.464511 48:-0.0152456 49:-0.276633 50:-0.111808 51:0.204461 52:0.0912643 53:0.0900986 54:0.346829 55:0.401518 56:0.3247 57:-0.373859 58:0.0621963 59:0.210218 60:-0.20114 61:0.191997 62:-0.0198358 63:-0.0988923 64:0.169844 65:0.225239 66:-0.233088 67:-0.309535 68:-0.135266 69:-0.408886 70:0.0559495 71:-0.310653 72:-0.184965 73:0.373378 74:-0.0418484 75:0.151621 76:-0.136538 77:-0.126637 78:-0.110823 79:0.418155 80:0.694702 81:-0.250086 82:0.474596 83:-0.137196 84:0.149836 85:-0.0906335 86:0.484076 87:-0.0216511 88:0.0905233 89:0.0337804 90:0.121736 91:-0.302156 92:-0.00220847 93:-0.290144 94:-0.0661748 95:-0.224367 96:-0.00325904 97:-0.23357 98:-0.0271356 99:0.31535 100:0.119388 
32 1:-0.197389 2:0.195196 3:-0.0449553 4:0.0170583 5:-0.0813924 6:-0.355576 7:-0.155679 8:0.486393 9:0.00140477 10:-0.00788984 11:-0.288298 12:0.232048 13:-0.146961 14:0.154879 15:0.221186 16:0.19693 17:-0.0922389 18:0.0760503 19:0.276328 20:-0.131598 21:-0.0668759 22:-0.038876 23:0.0718352 24:0.136889 25:0.0597433 26:-0.0188386 27:0.418718 28:-0.0437827 29:0.0588128 30:-0.119624 31:-0.420404 32:0.099824 33:-0.0899305 34:0.110489 35:-0.160424 36:-0.152458 37:0.0347637 38:0.169544 39:-0.0769936 40:-0.0545819 41:0.25512 42:-0.0994878 43:-0.0972939 44:-0.0406648 45:0.224989 46:-0.0848656 47:0.0827712 48:-0.275356 49:-0.237804 50:0.028658 51:0.41002 52:-0.022473 53:0.0720636 54:0.146781 55:0.202532 56:0.181086 57:-0.137024 58:0.0805045 59:-0.192003 60:0.0952324 61:0.141399 62:-0.168559 63:-0.237906 64:0.0797241 65:-0.04925 66:-0.309422 67:0.100655 68:0.310692 69:-0.239594 70:-0.0264207 71:-0.22816 72:-0.0103432 73:0.0121288 74:0.155112 75:0.335856 76:0.0410624 77:-0.179301 78:0.0596272 79:0.35017 80:-0.00716981 81:0.218421 82:-0.0537604 83:-0.0415156 84:0.148855 85:0.253853 86:-0.145312 87:0.0378367 88:-0.0675868 89:-0.0546196 90:-0.168361 91:-0.0920184 92:-0.107681 93:-0.192318 94:-0.0977402 95:-0.123215 96:0.281587 97:0.0224432 98:0.283304 99:0.224065 100:0.0419384 
32 1:-0.130445 2:0.283237 3:-0.37658 4:0.13169 5:-0.0965424 6:-0.0452887 7:0.033221 8:0.36964 9:-0.121489 10:0.0539468 11:-0.357612 12:0.313948 13:-0.386646 14:0.358222 15:0.075975 16:-0.0390056 17:0.192848 18:-0.165815 19:-0.0220198 20:-0.32295 21:0.0728759 22:0.197976 23:-0.0606247 24:0.130472 25:-0.0682291 26:0.0371717 27:0.026252 28:0.292614 29:0.125452 30:-0.0566115 31:-0.217084 32:0.0375338 33:-0.222864 34:-0.00133208 35:-0.174604 36:0.130252 37:0.00288628 38:0.281683 39:-0.0626822 40:0.0214272 41:0.183878 42:-0.168287 43:-0.250995 44:-0.0504039 45:-0.02461 46:0.0894728 47:-0.0562984 48:-0.147217 49:-0.044128 50:0.00124157 51:0.221974 52:-0.0109288 53:0.0713277 54:0.0731891 55:0.107219 56:0.284702 57:-0.103703 58:0.0886487 59:-0.0350532 60:-0.197445 61:0.0874238 62:-0.0485781 63:-0.173137 64:0.241675 65:0.0608328 66:-0.270778 67:0.121455 68:0.119401 69:-0.240417 70:-0.00180589 71:-0.414876 72:0.0762218 73:0.0202642 74:-0.0386042 75:0.274389 76:0.14566 77:0.156378 78:0.00380288 79:0.189108 80:0.131723 81:-0.0575546 82:0.156607 83:-0.0901866 84:-0.0576541 85:0.145954 86:-0.00267585 87:-0.0682606 88:-0.125951 89:0.145209 90:-0.0191158 91:-0.0140476 92:-0.12889 93:-0.158643 94:-0.114486 95:-0.104941 96:-0.310565 97:-0.393339 98:0.0435808 99:-0.0968204 100:-0.0251021 
32 1:0.435546 2:-0.0613478 3:-0.266808 4:0.715443 5:-0.0777726 6:-0.277715 7:-0.328032 8:-0.364361 9:-0.114821 10:0.151305 11:-0.444228 12:0.620839 13:0.089618 14:-0.456609 15:-0.0355721 16:0.509067 17:0.0112899 18:0.306865 19:-0.197548 20:-0.456647 21:-0.0249087 22:-0.360023 23:-0.057565 24:0.301434 25:0.152867 26:0.409315 27:-0.0874675 28:-0.542877 29:0.594457 30:0.0849404 31:-0.569749 32:0.021512 33:-0.114248 34:0.199485 35:0.38264 36:-0.507226 37:0.427849 38:0.710223 39:0.0955109 40:-0.204463 41:-0.247314 42:-0.209676 43:-0.442044 44:-0.269161 45:0.343863 46:0.485445 47:-0.0428914 48:-0.00421488 49:-0.174871 50:0.224979 51:-0.0561757 52:-0.290477 53:-0.0424388 54:0.671712 55:0.324717 56:-0.0783828 57:-0.308084 58:-0.154435 59:0.443725 60:0.356324 61:0.409407 62:-0.43529 63:0.200026 64:0.304783 65:-0.238175 66:0.256432 67:0.0853039 68:-0.0715511 69:-0.126146 70:0.187676 71:-0.399082 72:-0.176446 73:-0.0497689 74:0.143172 75:0.144597 76:-0.0124763 77:-0.125088 78:-0.14384 79:0.433257 80:0.405141 81:-0.155145 82:-0.143092 83:-0.145958 84:-0.304281 85:0.319345 86:-0.25081 87:-0.0309536 88:0.132658 89:-0.187281 90:0.839859 91:-0.0984069 92:-0.414134 93:-0.20019 94:-0.273676 95:-0.253492 96:-0.025836 97:0.101661 98:0.246351 99:-0.459583 100:0.248486 
10.03808685041694 1:0.466625 2:-0.00217516 3:-0.405568 4:0.30434 5:-0.170398 6:-0.184051 7:-0.0303525 8:0.140314 9:0.148041 10:-0.641512 11:-0.418428 12:0.549132 13:-0.42459 14:0.277108 15:0.27736 16:-0.155134 17:0.290961 18:0.102806 19:0.110765 20:-0.0166661 21:0.0166108 22:-0.0954017 23:0.199841 24:-0.00814644 25:0.12921 26:-0.400777 27:-0.132168 28:0.066563 29:0.330791 30:-0.151254 31:0.156956 32:-0.235484 33:-0.364095 34:-0.154284 35:0.0100295 36:-0.150543 37:-0.345296 38:0.142128 39:-0.0407552 40:-0.363109 41:0.206877 42:-0.172996 43:0.245775 44:-0.0976922 45:-0.468848 46:0.481455 47:-0.107181 48:0.0983906 49:-0.119292 50:-0.262423 51:0.669646 52:0.0499713 53:0.080424 54:0.136084 55:0.259871 56:-0.318061 57:0.0687281 58:0.0683077 59:0.40568 60:-0.193836 61:0.440627 62:-0.0837825 63:-0.162713 64:-0.198325 65:0.137915 66:-0.180779 67:-0.302325 68:0.516418 69:-0.440917 70:-0.0344576 71:-0.519441 72:0.207236 73:-0.611227 74:-0.197396 75:0.0123889 76:0.187373 77:-0.337389 78:-0.00207828 79:0.545527 80:0.0164894 81:0.397758 82:0.543966 83:-0.557072 84:0.0611225 85:-0.0738134 86:0.100714 87:-0.170656 88:0.0654281 89:-0.0932515 90:0.126458 91:-0.47938 92:-0.301203 93:-0.301591 94:0.121103 95:-0.431803 96:-0.152357 97:-0.0949766 98:0.41131 99:0.323086 100:-0.192923 
23.29228695144186 1:-0.280501 2:-0.272168 3:0.0314156 4:-0.0508893 5:0.299658 6:-0.484126 7:0.0443437 8:-0.103383 9:-0.0449524 10:-0.127255 11:-0.0888282 12:0.397243 13:-0.00953965 14:0.298903 15:-0.0879691 16:0.134663 17:0.0459521 18:0.0706111 19:0.0386275 20:-0.257465 21:-0.0225951 22:0.322958 23:0.218101 24:0.608765 25:-0.0698575 26:0.0758141 27:-0.402334 28:0.0940468 29:0.142229 30:-0.106585 31:-0.0445514 32:0.209976 33:-0.0418423 34:-0.222888 35:-0.670824 36:0.344187 37:0.241592 38:-0.201566 39:0.316208 40:-0.0464306 41:0.183133 42:-0.118602 43:0.219132 44:-0.255878 45:0.18154 46:0.0224935 47:-0.160061 48:-0.0512103 49:-0.139239 50:0.0791651 51:0.546458 52:-0.107591 53:0.259508 54:0.426384 55:0.372792 56:0.236608 57:-0.0564907 58:-0.0534276 59:-0.139941 60:0.0561195 61:0.214784 62:-0.0770723 63:0.231708 64:-0.0878287 65:-0.0330595 66:0.0805248 67:0.166333 68:0.559414 69:-0.271654 70:-0.108585 71:-0.558719 72:0.282634 73:0.148272 74:0.159242 75:-0.162499 76:0.122132 77:-0.0181688 78:0.186701 79:0.225931 80:0.271182 81:0.0984997 82:-0.131933 83:-0.324759 84:-0.286141 85:0.491226 86:0.197268 87:0.0355925 88:-0.0824849 89:-0.0759598 90:-0.395895 91:-0.410751 92:-0.0503924 93:0.400627 94:-0.332503 95:-0.292483 96:-0.395284 97:-0.204286 98:-0.338553 99:0.0551396 100:0.0459606 
2.65295262856905 1:-0.541783 2:0.185941 3:-0.189912 4:0.35796 5:0.28796 6:-0.0727902 7:-0.206491 8:0.00521609 9:-0.237684 10:0.149599 11:-0.177097 12:0.354817 13:-0.00920536 14:-0.0464099 15:0.372621 16:-0.474578 17:-0.640617 18:-0.0624556 19:0.348719 20:0.0719343 21:0.110709 22:0.626975 23:-0.178117 24:-0.174806 25:0.050599 26:0.48126 27:0.143731 28:-0.212655 29:-0.2712 30:0.06695 31:-0.321092 32:0.163203 33:-0.204323 34:-0.182642 35:-0.0429557 36:0.124625 37:-0.0153809 38:0.120031 39:0.295961 40:-0.171541 41:0.0349607 42:-0.485503 43:0.0297143 44:0.0245391 45:-0.0238149 46:0.205386 47:-0.1428 48:-0.171782 49:-0.0351784 50:-0.212469 51:0.356479 52:-0.364413 53:0.0803354 54:-0.164952 55:-0.0929659 56:0.167656 57:0.0548481 58:0.0429511 59:0.272306 60:0.0548953 61:0.425155 62:-0.119775 63:-0.358716 64:0.114323 65:-0.157507 66:-0.282119 67:-0.113818 68:0.506964 69:-0.481245 70:-0.0175268 71:-0.221472 72:0.0189373 73:-0.216254 74:0.430795 75:0.220283 76:0.379159 77:-0.0936083 78:-0.235955 79:0.161854 80:0.198076 81:0.195068 82:0.337464 83:-0.0657145 84:-0.0492517 85:0.104545 86:0.0749243 87:0.200937 88:0.0806733 89:-0.0366148 90:0.0478089 91:-0.055779 92:0.205954 93:-0.128877 94:-0.14087 95:-0.375021 96:0.0653536 97:0.54363 98:0.0437691 99:0.253196 100:0.136955 
28.49377273934811 1:-0.242023 2:-0.157624 3:-0.167797 4:0.264505 5:0.659912 6:-0.0496059 7:-0.422893 8:0.302271 9:0.0276146 10:0.334135 11:-0.120088 12:0.377355 13:0.0821397 14:0.0401638 15:0.44238 16:0.42104 17:0.175104 18:-0.148006 19:-0.0319723 20:0.0767372 21:-0.0589972 22:0.0485559 23:-0.169055 24:-0.082692 25:0.118161 26:0.0578842 27:0.0327734 28:0.120787 29:0.00145837 30:-0.101045 31:-0.405685 32:0.163734 33:-0.179461 34:0.0553368 35:0.0461609 36:0.201741 37:0.0695389 38:-0.226983 39:0.0703104 40:0.00789777 41:-0.0090317 42:-0.31779 43:0.0830697 44:-0.117015 45:-0.118568 46:0.169391 47:0.012281 48:-0.403354 49:-0.181625 50:0.075553 51:0.642266 52:-0.0601801 53:0.406451 54:0.45461 55:-0.264458 56:0.327553 57:0.183705 58:0.0860199 59:0.409651 60:-0.228575 61:0.427489 62:-0.23793 63:0.0645025 64:0.332249 65:-0.261627 66:-0.0738856 67:0.0796931 68:-0.212849 69:-0.203123 70:-0.216922 71:-0.761093 72:0.121398 73:0.0225758 74:0.115233 75:0.261749 76:-0.0589774 77:0.470894 78:0.199776 79:0.316978 80:0.320793 81:-0.439889 82:0.364598 83:0.126484 84:0.0955556 85:0.799634 86:0.266271 87:0.11537 88:-0.00239701 89:0.0817131 90:-0.178129 91:-0.0657349 92:-0.00309884 93:-0.569669 94:-0.132491 95:-0.400738 96:0.0688185 97:0.0785168 98:0.159356 99:-0.0382993 100:0.270095 
26.87327967616772 1:0.340254 2:0.00686275 3:-0.11814 4:0.364031 5:0.726081 6:-0.469047 7:0.236839 8:-0.0158024 9:-0.385298 10:0.265261 11:-0.444083 12:0.373472 13:-0.0771857 14:0.172908 15:0.129736 16:-0.333091 17:0.0585989 18:0.106227 19:-0.121366 20:-0.239578 21:-0.546712 22:0.441014 23:0.346201 24:0.455397 25:-0.285496 26:0.0535583 27:-0.0526542 28:0.0684102 29:-0.43268 30:0.30569 31:-0.351895 32:-0.349625 33:-0.102996 34:0.115746 35:-0.366711 36:0.0136905 37:-0.0790158 38:0.285905 39:-0.085495 40:0.133125 41:0.122865 42:-0.0605757 43:-0.0709358 44:-0.631208 45:-0.0626705 46:0.150961 47:0.372796 48:0.137367 49:-0.295472 50:-0.0836566 51:0.423221 52:0.121238 53:0.213915 54:0.263923 55:0.47209 56:-0.0501418 57:0.142076 58:0.068292 59:0.0304114 60:-0.128098 61:-0.0510291 62:-0.272583 63:0.0578459 64:0.344302 65:0.3514 66:-0.234405 67:-0.323807 68:0.189732 69:-0.4625 70:-0.336027 71:-0.312578 72:0.209199 73:-0.226986 74:0.123819 75:0.31761 76:-0.247 77:0.110328 78:0.0867407 79:0.16594 80:-0.0416641 81:0.498487 82:0.183978 83:-0.171137 84:-0.0315997 85:0.238775 86:0.460353 87:-0.27386 88:-0.261017 89:0.0809661 90:0.152649 91:-0.000907508 92:-0.292611 93:-0.0374142 94:-0.404956 95:-0.373129 96:-0.170431 97:0.225308 98:0.440164 99:0.143615 100:0.381525 
11.7329095015427 1:0.179464 2:-0.298977 3:-0.297913 4:0.456924 5:0.668197 6:0.20872 7:-0.456377 8:0.709454 9:-0.307979 10:-0.238937 11:-0.26051 12:0.40169 13:-0.195263 14:-0.0568591 15:0.086668 16:0.0317588 17:0.268387 18:-0.143012 19:0.339825 20:-0.209293 21:-0.167778 22:-0.12424 23:0.442358 24:0.466044 25:-0.114566 26:0.085884 27:-0.377515 28:-0.180998 29:-0.291053 30:-0.223503 31:-0.168288 32:-0.147392 33:-0.0619751 34:-0.387402 35:-0.308579 36:0.386745 37:-0.082343 38:0.0155027 39:0.0174509 40:-0.0318887 41:0.134478 42:-0.184894 43:-0.447399 44:0.0469363 45:0.0317075 46:0.637104 47:-0.195521 48:-0.607462 49:-0.388931 50:0.0412621 51:-0.0144321 52:-0.294947 53:0.496326 54:0.0688538 55:0.474568 56:0.292989 57:0.138063 58:-0.032518 59:0.226483 60:0.457328 61:-0.395037 62:-0.284993 63:0.141868 64:0.0690076 65:-0.0342089 66:-0.0983666 67:-0.116827 68:0.418367 69:-0.147776 70:0.0981281 71:-0.12435 72:-0.183904 73:-0.369939 74:-0.327457 75:0.405908 76:-0.33404 77:0.347088 78:0.0273135 79:0.0525351 80:0.595661 81:0.167722 82:0.263073 83:-0.096428 84:0.199504 85:0.457427 86:-0.345864 87:-0.359037 88:-0.186049 89:0.0327443 90:-0.547596 91:-0.484213 92:0.0711126 93:-0.366426 94:-0.204268 95:0.0226471 96:-0.121316 97:0.0756456 98:0.12901 99:-0.0411523 100:0.164972 
32 1:0.157764 2:-0.23418 3:-0.197139 4:0.275552 5:0.154695 6:0.0109052 7:-0.363572 8:0.419683 9:0.112229 10:0.300027 11:-0.164614 12:0.261002 13:-0.0121736 14:0.432072 15:0.325709 16:-0.137742 17:0.362793 18:-0.0690345 19:-0.0143496 20:-0.29406 21:0.428291 22:-0.0159281 23:0.00481219 24:0.068845 25:0.0644964 26:0.0219116 27:-0.149147 28:0.0595031 29:0.16796 30:0.302658 31:-0.0316389 32:-0.0636154 33:-0.052398 34:-0.0134766 35:0.0796845 36:-0.211407 37:0.082108 38:-0.0209792 39:-0.320106 40:0.187325 41:0.0551724 42:-0.0958129 43:-0.165928 44:-0.143209 45:-0.104128 46:0.158169 47:0.409395 48:-0.398478 49:0.0673617 50:0.129527 51:0.253372 52:0.364705 53:0.232021 54:0.0454523 55:0.0760595 56:0.212568 57:-0.0769883 58:0.203374 59:-0.0914934 60:-0.295211 61:0.177056 62:0.0529538 63:-0.0435791 64:0.254675 65:0.100042 66:-0.163837 67:-0.256977 68:0.125612 69:-0.229481 70:0.021768 71:-0.290051 72:-0.100794 73:-0.0773383 74:0.0153166 75:0.518413 76:-0.0504857 77:0.200893 78:-0.343357 79:0.10653 80:0.0724348 81:-0.00266483 82:-0.23089 83:0.082771 84:-0.196692 85:0.257013 86:0.0531152 87:-0.271397 88:0.0453188 89:0.0661587 90:-0.0997718 91:-0.17254 92:-0.267891 93:-0.0882739 94:-0.0679282 95:-0.0260862 96:-0.0633808 97:-0.105509 98:0.221273 99:-0.144607 100:0.368862 
1.67675651855962 1:0.227546 2:-0.123189 3:-0.268313 4:0.414331 5:-0.178953 6:-0.0407136 7:-0.374675 8:0.331459 9:-0.190672 10:-0.231183 11:-0.447818 12:0.249763 13:-0.0226505 14:-0.102076 15:0.416908 16:-0.161549 17:0.253814 18:-0.0938689 19:0.234179 20:-0.602502 21:-0.156157 22:-0.303302 23:-0.121556 24:-0.0374191 25:0.29798 26:-0.264978 27:-0.064907 28:-0.154851 29:-0.149443 30:0.347109 31:-0.147246 32:0.152389 33:-0.516656 34:0.0569983 35:-0.145438 36:-0.211633 37:-0.160847 38:0.433763 39:-0.0304932 40:-0.0523329 41:0.332629 42:-0.30338 43:-0.335881 44:-0.125382 45:0.0258607 46:-0.267796 47:0.261378 48:0.198405 49:-0.0800488 50:0.148457 51:-0.0331959 52:-0.271062 53:0.167867 54:0.0297733 55:0.400122 56:-0.127114 57:0.20588 58:0.121719 59:-0.215526 60:-0.0338694 61:0.143172 62:-0.249052 63:-0.103121 64:0.421354 65:-0.105221 66:-0.10577 67:-0.110847 68:0.295427 69:-0.226627 70:-0.211332 71:-0.496459 72:0.0297742 73:0.443678 74:0.0843332 75:0.0730258 76:0.145627 77:-0.201171 78:0.145013 79:0.340742 80:0.0448101 81:-0.210544 82:-0.0052311 83:-0.15196 84:0.244822 85:0.241923 86:0.131857 87:-0.224068 88:0.130375 89:-0.148274 90:-0.176476 91:0.0707818 92:-0.0822957 93:-0.129741 94:0.192645 95:-0.00452193 96:-0.203962 97:0.0488229 98:0.101492 99:0.077924 100:0.304723 
17.76776981037613 1:-0.571755 2:-0.221239 3:0.0914002 4:0.103728 5:0.193218 6:0.0658096 7:-0.306074 8:0.305591 9:0.0534471 10:-0.244145 11:-0.186114 12:0.445627 13:-0.196869 14:0.430248 15:0.211495 16:0.0357726 17:-0.116793 18:-0.0678329 19:0.200227 20:-0.455746 21:0.119957 22:-0.0475461 23:0.314276 24:0.209473 25:0.0123452 26:0.0840244 27:-0.223768 28:0.026486 29:0.177619 30:0.184192 31:0.0839601 32:-0.0404424 33:0.015766 34:-0.218293 35:-0.0262358 36:-0.148684 37:0.125322 38:0.231945 39:0.161148 40:0.243986 41:0.165573 42:-0.316092 43:-0.294942 44:-0.0390884 45:0.0339674 46:0.239739 47:-0.044919 48:-0.316239 49:-0.206949 50:-0.0796775 51:0.501986 52:-0.0156497 53:-0.12328 54:0.286804 55:0.137685 56:0.0678167 57:-0.0325075 58:-0.0703856 59:0.0430449 60:0.0665861 61:0.144265 62:-0.108823 63:-0.169379 64:0.00511459 65:0.100588 66:-0.16692 67:0.0197502 68:0.262164 69:-0.300745 70:-0.117142 71:-0.292077 72:0.281253 73:-0.00311448 74:0.134435 75:0.414179 76:0.070047 77:-0.0359266 78:0.273291 79:0.229245 80:0.00246325 81:0.182221 82:0.176884 83:-0.10616 84:0.086712 85:0.136342 86:0.203152 87:0.0260819 88:0.00616461 89:-0.049153 90:-0.108702 91:-0.147678 92:-0.0113564 93:-0.231838 94:-0.0384002 95:-0.120386 96:-0.124312 97:-0.277233 98:-0.00897805 99:-0.124593 100:0.270962 
2.235918525989428 1:-0.262809 2:0.887341 3:-0.425857 4:0.655422 5:0.292614 6:-0.502552 7:-0.771964 8:-0.343389 9:-0.445095 10:-0.437598 11:-0.206444 12:0.154818 13:-0.187387 14:0.237094 15:0.513523 16:0.143494 17:0.234072 18:-0.00176155 19:0.301985 20:-1 21:0.0279783 22:-0.358591 23:0.443052 24:0.677842 25:0.209332 26:-0.346481 27:-0.026568 28:0.0289146 29:0.158658 30:0.248235 31:0.0192682 32:0.107161 33:0.0142021 34:-0.189328 35:-0.284922 36:0.420063 37:-0.0517865 38:0.631749 39:0.141423 40:-0.298673 41:0.150447 42:-0.0065122 43:0.313864 44:-0.250115 45:-0.423528 46:0.732467 47:-0.363771 48:-0.223968 49:-0.451901 50:-0.172047 51:0.218726 52:0.236038 53:0.17267 54:-0.293896 55:-0.551882 56:0.112328 57:-0.176363 58:0.26321 59:-0.351414 60:-0.891625 61:-0.254493 62:-0.0852243 63:-0.507858 64:0.371373 65:0.158492 66:0.109723 67:-0.0778369 68:0.204659 69:-0.00303961 70:-0.119568 71:-0.0169848 72:0.0339816 73:-0.64054 74:0.00435037 75:0.0559265 76:-0.0942603 77:-0.192637 78:-0.123383 79:0.306606 80:-0.34285 81:0.375431 82:0.276345 83:-0.0542146 84:0.777052 85:-0.526188 86:0.154014 87:-0.400131 88:-0.0588149 89:0.290643 90:-0.474438 91:1 92:0.157208 93:0.0909854 94:0.00072043 95:-0.397091 96:0.198306 97:-0.132283 98:-0.0138602 99:-0.112215 100:0.17541 
13.57990884057616 1:-0.356507 2:-0.265203 3:0.0589314 4:0.357065 5:0.557318 6:-0.257971 7:-0.0601499 8:0.131689 9:-0.145961 10:-0.0354275 11:-0.159412 12:0.448516 13:0.261328 14:0.231593 15:0.00217968 16:0.104217 17:-0.0144227 18:0.0786025 19:-0.0691341 20:-0.00688021 21:0.229231 22:-0.0648607 23:0.101304 24:0.103519 25:-0.103979 26:-0.143693 27:-0.202882 28:-0.0858245 29:-0.235274 30:-0.0525367 31:-0.0246557 32:-0.0709238 33:0.240754 34:0.0305194 35:-0.0690737 36:-0.15107 37:0.191193 38:0.401816 39:0.0774682 40:0.163947 41:-0.128744 42:0.175539 43:-0.182448 44:0.0680161 45:0.332221 46:0.164427 47:-0.148253 48:-0.0300062 49:-0.154358 50:-0.271209 51:0.680716 52:-0.0235982 53:-0.188648 54:0.358511 55:0.0075233 56:0.0834966 57:0.0506301 58:0.282032 59:0.367878 60:-0.255937 61:0.0165455 62:-0.184662 63:-0.139547 64:0.169989 65:-0.140761 66:-0.0181995 67:0.0426832 68:-0.117266 69:-0.146963 70:-0.149657 71:0.0315227 72:0.363741 73:0.308563 74:0.148219 75:0.400877 76:0.134774 77:-0.0658215 78:0.0124448 79:0.0152118 80:-0.22588 81:0.532532 82:0.42547 83:0.174693 84:0.189856 85:-0.0892982 86:0.0369478 87:0.0358099 88:-0.00421222 89:0.122436 90:-0.109534 91:-0.187178 92:-0.197549 93:0.222219 94:-0.163579 95:0.178541 96:-0.0652663 97:-0.11607 98:0.126452 99:0.439777 100:-0.00551134 
8.45636079750679 1:-0.365501 2:-0.569731 3:0.188324 4:0.124257 5:0.147494 6:-0.093647 7:-0.150941 8:0.613019 9:-0.12371 10:-0.397673 11:-0.459733 12:0.17573 13:0.0785855 14:0.221878 15:0.393959 16:-0.388657 17:0.0734728 18:0.294439 19:0.0363412 20:-0.361568 21:0.09739 22:-0.117646 23:0.250955 24:-0.0408071 25:6.35904e-05 26:0.0997435 27:0.176684 28:0.00985596 29:-0.16665 30:0.03521 31:-0.0274697 32:0.0011951 33:0.225001 34:0.190215 35:-0.196947 36:-0.238412 37:-0.170592 38:0.227806 39:-0.101068 40:0.237064 41:0.0960232 42:0.0823187 43:-0.142752 44:-0.229689 45:0.15095 46:0.325892 47:0.320533 48:-0.173489 49:-0.243405 50:0.10779 51:-0.0986532 52:0.0809397 53:-0.159933 54:-0.153663 55:-0.0954005 56:0.0167588 57:-0.315438 58:0.112094 59:-0.196556 60:-0.235879 61:0.129664 62:-0.441404 63:-0.0867498 64:-0.0229232 65:0.0580189 66:-0.233831 67:0.136008 68:0.59111 69:-0.286905 70:0.00733353 71:-0.245086 72:-0.00645284 73:-0.249999 74:-0.174076 75:0.460846 76:0.186246 77:-0.163949 78:0.2679 79:0.0790043 80:0.238563 81:0.252166 82:-0.105139 83:-0.0343498 84:0.0375265 85:0.050422 86:0.0752942 87:0.0998578 88:0.225165 89:0.0412153 90:0.0831414 91:0.0775465 92:0.179173 93:-0.112211 94:-0.353583 95:-0.0646356 96:-0.0981221 97:-0.170363 98:0.282429 99:0.340065 100:0.22695 
32 1:0.139766 2:-0.34676 3:-0.434379 4:0.166998 5:0.406261 6:-0.042936 7:-0.207087 8:0.166594 9:0.39859 10:0.159795 11:-0.193288 12:0.387006 13:-0.0475405 14:0.415941 15:0.187317 16:-0.681856 17:-0.34744 18:-0.200317 19:-0.0833377 20:-0.631537 21:-0.0837781 22:-0.0234065 23:-0.253767 24:0.0616525 25:-0.0287076 26:0.179245 27:0.221561 28:0.0991318 29:-0.123007 30:0.163549 31:-0.089664 32:-0.109235 33:-0.133926 34:-0.302562 35:0.239504 36:-0.269514 37:-0.0690439 38:0.156424 39:-0.159234 40:0.166566 41:0.381207 42:-0.195552 43:0.0547643 44:-0.349015 45:-0.203999 46:0.1599 47:0.147246 48:-0.397084 49:-0.124439 50:0.0414958 51:0.368423 52:0.139337 53:0.134067 54:-0.043208 55:-0.144608 56:0.321032 57:0.115519 58:0.047639 59:-0.0702121 60:0.16996 61:0.173051 62:-0.0789369 63:-0.0424354 64:0.142021 65:-0.0208759 66:-0.034153 67:0.0934259 68:-0.306581 69:-0.253105 70:0.183803 71:-0.0575935 72:-0.0607148 73:-0.393272 74:0.20923 75:0.115771 76:0.0374913 77:0.387557 78:-0.0271598 79:0.224565 80:-0.0217421 81:-0.0994202 82:0.113499 83:0.153527 84:0.217231 85:0.186818 86:-0.0116298 87:-0.0755569 88:-0.139489 89:-0.120163 90:0.112958 91:-0.0886851 92:0.00691101 93:-0.0474994 94:-0.0393717 95:-0.235914 96:-0.138346 97:-0.129316 98:0.216442 99:0.31387 100:0.0416666 
32 1:0.385322 2:-0.334468 3:-0.255824 4:0.191593 5:0.0734833 6:-0.0515118 7:-0.185084 8:-0.016395 9:-0.340406 10:0.0534529 11:-0.305154 12:0.299436 13:-0.370737 14:0.501051 15:0.0425618 16:0.188356 17:0.0520639 18:0.156006 19:0.335299 20:-0.332215 21:0.246897 22:-0.422788 23:0.060355 24:0.0650002 25:0.484016 26:-0.0684366 27:0.0103568 28:0.145707 29:0.0843389 30:-0.164278 31:-0.209106 32:-0.0184158 33:0.125843 34:-0.638934 35:-0.028295 36:0.144305 37:0.194502 38:-0.0526163 39:0.110834 40:-0.218316 41:-0.0377511 42:-0.260458 43:-0.0985003 44:-0.0257675 45:0.0943171 46:0.188626 47:0.069812 48:-0.219624 49:-0.175901 50:-0.198404 51:0.000417815 52:0.291067 53:0.0377821 54:0.452424 55:0.0285007 56:-0.142134 57:0.0372071 58:-0.150943 59:0.251006 60:-0.24444 61:0.122436 62:-0.257198 63:-0.456185 64:0.11758 65:0.123491 66:-0.0556031 67:-0.0468129 68:0.044218 69:-0.253752 70:-0.190037 71:-0.363515 72:-0.104199 73:-0.208607 74:0.0125552 75:0.18232 76:-0.116453 77:0.055927 78:0.357156 79:0.0738497 80:0.0978328 81:-0.0435033 82:0.0377864 83:-0.148072 84:0.275767 85:0.280947 86:0.344931 87:-0.0925992 88:-0.114922 89:0.212163 90:-0.09699 91:-0.11989 92:-0.154479 93:-0.205845 94:0.0148256 95:-0.00502647 96:-0.0956082 97:0.0214041 98:0.182136 99:0.317194 100:0.190747 
1.394732760030507 1:0.535272 2:0.0642236 3:0.206103 4:0.80313 5:-0.0593525 6:0.0904897 7:-0.131106 8:-0.154928 9:-0.345081 10:0.0292794 11:-0.169901 12:0.647811 13:0.431222 14:-0.083194 15:0.158431 16:-0.212511 17:-0.0875035 18:-0.00488959 19:0.309929 20:0.112775 21:-0.0341152 22:-0.148391 23:-0.141489 24:0.0782954 25:0.108509 26:-0.43933 27:-0.024147 28:-0.515035 29:0.207769 30:0.0843928 31:0.0914017 32:-0.367088 33:-0.0936865 34:-0.383 35:-0.673195 36:-0.0564381 37:0.0970102 38:0.841577 39:0.467846 40:0.54677 41:0.0569702 42:-0.404462 43:0.0797793 44:-0.185852 45:0.0638178 46:-0.479347 47:0.334513 48:-0.30444 49:0.18151 50:0.0942571 51:0.199886 52:0.802538 53:-0.260595 54:0.103699 55:0.0865243 56:-0.0417153 57:0.270226 58:0.225784 59:-0.00252098 60:0.383882 61:-0.0979903 62:0.473309 63:0.0243536 64:0.388672 65:-0.119951 66:0.090854 67:0.552309 68:0.201932 69:-0.342102 70:-0.115644 71:-0.781979 72:0.179518 73:0.456593 74:0.161449 75:0.253085 76:0.664344 77:0.517776 78:0.265694 79:-0.137914 80:0.0641531 81:0.0203506 82:0.488605 83:-0.734807 84:-0.388632 85:0.0450989 86:-0.250743 87:-0.403125 88:0.207379 89:0.0827531 90:-0.237222 91:-0.233273 92:0.387798 93:-0.0841209 94:-0.0369972 95:0.00881118 96:0.198947 97:0.319095 98:0.748456 99:-0.303135 100:0.454615 
32 1:0.178699 2:0.153382 3:-0.229654 4:0.22466 5:-0.150205 6:-0.0315918 7:-0.0768868 8:0.553625 9:-0.00441615 10:-0.307832 11:-0.309617 12:0.424553 13:-0.137118 14:0.348255 15:0.263477 16:-0.160125 17:0.237864 18:-0.0430309 19:0.324809 20:-0.0514416 21:0.14209 22:-0.0601548 23:0.15266 24:0.0330059 25:0.147096 26:0.150862 27:-0.122078 28:-0.351642 29:-0.163791 30:-0.0824112 31:-0.0496548 32:0.0404261 33:-0.0192177 34:-0.0156554 35:0.127209 36:-0.295659 37:-0.156565 38:0.451397 39:-0.100596 40:0.199848 41:0.156311 42:-0.313588 43:-0.0662627 44:-0.147581 45:-0.046083 46:-0.0526398 47:-0.0915289 48:-0.230481 49:0.00060277 50:0.0376922 51:0.130575 52:0.106425 53:-0.0472917 54:0.391082 55:0.053573 56:0.194109 57:0.131099 58:-0.0128504 59:0.238649 60:0.0455008 61:0.418371 62:-0.345652 63:0.0546214 64:0.161973 65:-0.222335 66:-0.15072 67:0.0271912 68:0.303424 69:-0.28885 70:-0.465594 71:-0.328296 72:-0.0193064 73:-0.123071 74:0.0614246 75:0.443329 76:-0.00980091 77:0.207212 78:-0.310018 79:0.458062 80:0.107535 81:-0.184637 82:-0.0120726 83:-0.181517 84:-0.0846253 85:0.490933 86:0.104231 87:-0.201242 88:-0.0470923 89:-0.017013 90:-0.104287 91:0.111977 92:-0.0331828 93:-0.260894 94:0.035233 95:-0.0796506 96:0.119373 97:-0.0838601 98:0.293956 99:-0.123596 100:0.130427 
